{"learner":{"attributes":{"best_iteration":"151","best_score":"0.06669874724005856","scikit_learn":"{\"_estimator_type\": \"regressor\"}"},"feature_names":[],"feature_types":[],"gradient_booster":{"model":{"cats":{"enc":[],"feature_segments":[],"sorted_idx":[]},"gbtree_model_param":{"num_parallel_tree":"1","num_trees":"172"},"iteration_indptr":[0,1,2,3,4,5,6,7,8,9,10,11,12,13,14,15,16,17,18,19,20,21,22,23,24,25,26,27,28,29,30,31,32,33,34,35,36,37,38,39,40,41,42,43,44,45,46,47,48,49,50,51,52,53,54,55,56,57,58,59,60,61,62,63,64,65,66,67,68,69,70,71,72,73,74,75,76,77,78,79,80,81,82,83,84,85,86,87,88,89,90,91,92,93,94,95,96,97,98,99,100,101,102,103,104,105,106,107,108,109,110,111,112,113,114,115,116,117,118,119,120,121,122,123,124,125,126,127,128,129,130,131,132,133,134,135,136,137,138,139,140,141,142,143,144,145,146,147,148,149,150,151,152,153,154,155,156,157,158,159,160,161,162,163,164,165,166,167,168,169,170,171,172],"tree_info":[0,0,0,0,0,0,0,0,0,0,0,0,0,0,0,0,0,0,0,0,0,0,0,0,0,0,0,0,0,0,0,0,0,0,0,0,0,0,0,0,0,0,0,0,0,0,0,0,0,0,0,0,0,0,0,0,0,0,0,0,0,0,0,0,0,0,0,0,0,0,0,0,0,0,0,0,0,0,0,0,0,0,0,0,0,0,0,0,0,0,0,0,0,0,0,0,0,0,0,0,0,0,0,0,0,0,0,0,0,0,0,0,0,0,0,0,0,0,0,0,0,0,0,0,0,0,0,0,0,0,0,0,0,0,0,0,0,0,0,0,0,0,0,0,0,0,0,0,0,0,0,0,0,0,0,0,0,0,0,0,0,0,0,0,0,0,0,0,0,0,0,0],"trees":[{"base_weights":[2.8099332E-9,-4.9009654E-1,4.893974E-1,-7.561927E-1,-2.6788065E-1,1.9782339E-1,7.147742E-1,-9.0242445E-1,-6.689066E-1,-3.8663414E-1,-1.3321306E-1,3.6860874E-1,9.361025E-2,5.9273094E-1,8.795643E-1,-3.740855E-2,-4.9482655E-2,-5.715899E-1,-3.935686E-2,-1.6188347E-1,-4.4602412E-1,-5.210547E-3,-2.5427768E-1,2.800792E-1,4.7986618E-1,1.1280519E-2,2.2474036E-1,6.801315E-1,4.7638395E-1,4.961093E-2,7.224538E-1,-4.3990597E-1,-3.1185139E-2,-5.5988327E-2,-2.2648455E-1,-3.695914E-1,-5.4399794E-1,5.720959E-2,-9.8696016E-2,-1.8621485E-1,-3.4788927E-1,3.055313E-1,9.690947E-3,5.809025E-1,3.7228325E-1,1.1542942E-1,-4.291423E-2,1.5116483E-1,3.717242E-1,2.81578E-2,7.4249774E-1,5.5118275E-1,3.9386237E-1,2.6684333E-2,3.8726438E-2,-2.6604015E-2,-1.74365E-2,-6.212314E-3,5.5213337E-4,-1.1901427E-2,-2.739489E-3,-2.0178063E-2,-1.46112535E-2,-2.175617E-2,-3.0466601E-2,1.9430098E-4,7.040936E-3,-7.6911E-3,5.333506E-4,-5.501497E-3,-1.1118152E-2,-8.048213E-3,-1.9245287E-2,1.59366E-2,6.1489227E-3,8.525181E-3,2.9566636E-2,4.9341917E-3,1.8950539E-2,7.386693E-4,8.081748E-3,-6.4601973E-3,6.2765105E-4,1.0577399E-2,4.700455E-3,8.608441E-3,2.0758862E-2,3.7489306E-2,1.5153535E-2,7.496673E-3,2.7810453E-2,2.1132963E-2,9.132362E-3],"categories":[],"categories_nodes":[],"categories_segments":[],"categories_sizes":[],"default_left":[0,0,0,0,0,0,0,0,0,0,0,0,0,0,0,0,0,0,0,0,0,0,0,0,0,0,0,0,0,0,0,0,0,0,0,0,0,0,0,0,0,0,0,0,0,0,0,0,0,0,0,0,0,0,0,0,0,0,0,0,0,0,0,0,0,0,0,0,0,0,0,0,0,0,0,0,0,0,0,0,0,0,0,0,0,0,0,0,0,0,0,0,0],"id":0,"left_children":[1,3,5,7,9,11,13,15,17,19,21,23,25,27,29,-1,-1,31,-1,33,35,37,39,41,43,45,47,49,51,-1,53,55,-1,57,59,61,63,65,67,69,71,73,-1,75,77,79,81,83,85,-1,87,89,91,-1,-1,-1,-1,-1,-1,-1,-1,-1,-1,-1,-1,-1,-1,-1,-1,-1,-1,-1,-1,-1,-1,-1,-1,-1,-1,-1,-1,-1,-1,-1,-1,-1,-1,-1,-1,-1,-1,-1,-1],"loss_changes":[3.360326E2,4.1188995E1,4.5924118E1,3.4552917E0,6.0735283E0,5.4295044E0,7.422699E0,8.2038116E-1,1.8857651E0,2.6374283E0,2.8035548E0,1.0081491E0,2.0702791E0,2.0148163E0,2.2212372E0,0E0,0E0,5.1480865E-1,0E0,2.883209E-1,9.970856E-1,5.249948E-1,5.277648E-1,8.7880135E-2,3.272295E-1,6.7662805E-1,7.440746E-1,5.2295685E-1,4.12508E-1,0E0,3.0423737E-1,1.1699486E-1,0E0,8.372918E-2,4.04737E-2,1.2648487E-1,2.1856499E-1,2.4020298E-1,2.1867558E-1,1.297543E-1,2.009778E-1,8.129454E-2,0E0,1.9083023E-3,1.2295246E-2,1.8829757E-1,3.7973595E-1,1.5612602E-1,1.3663054E-1,0E0,3.2180786E-2,1.9462585E-2,2.3908329E-1,0E0,0E0,0E0,0E0,0E0,0E0,0E0,0E0,0E0,0E0,0E0,0E0,0E0,0E0,0E0,0E0,0E0,0E0,0E0,0E0,0E0,0E0,0E0,0E0,0E0,0E0,0E0,0E0,0E0,0E0,0E0,0E0,0E0,0E0,0E0,0E0,0E0,0E0,0E0,0E0],"parents":[2147483647,0,0,1,1,2,2,3,3,4,4,5,5,6,6,7,7,8,8,9,9,10,10,11,11,12,12,13,13,14,14,17,17,19,19,20,20,21,21,22,22,23,23,24,24,25,25,26,26,27,27,28,28,30,30,31,31,33,33,34,34,35,35,36,36,37,37,38,38,39,39,40,40,41,41,43,43,44,44,45,45,46,46,47,47,48,48,50,50,51,51,52,52],"right_children":[2,4,6,8,10,12,14,16,18,20,22,24,26,28,30,-1,-1,32,-1,34,36,38,40,42,44,46,48,50,52,-1,54,56,-1,58,60,62,64,66,68,70,72,74,-1,76,78,80,82,84,86,-1,88,90,92,-1,-1,-1,-1,-1,-1,-1,-1,-1,-1,-1,-1,-1,-1,-1,-1,-1,-1,-1,-1,-1,-1,-1,-1,-1,-1,-1,-1,-1,-1,-1,-1,-1,-1,-1,-1,-1,-1,-1,-1],"split_conditions":[2.5086384E0,1.1654555E0,3.5767796E0,4.6584514E-1,1.8825936E0,2.191162E2,4.415924E0,1.9216335E2,2.8310864E2,1.3209369E2,2.7291302E2,3.2090967E0,3.1174355E0,2.8536145E2,2.6804123E2,-3.740855E-2,-4.9482655E-2,4.900421E0,-3.935686E-2,5.0367355E0,3.505353E2,8.874995E0,4.2442606E2,1.0647792E1,8.948037E0,6.441573E0,3.728541E1,3.892488E0,7.018352E0,4.961093E-2,2.460272E1,3.1266315E1,-3.1185139E-2,1.6033009E0,9.419849E-6,1.6651564E0,5.899404E0,3.7196434E1,3.703899E1,4.2203135E0,4.0133815E0,2.603039E1,9.690947E-3,2.0868557E1,1.8054619E0,2.7305143E0,2.7305143E0,7.224142E0,3.1795557E0,2.81578E-2,1.4223149E1,2.043494E1,4.7124008E2,2.6684333E-2,3.8726438E-2,-2.6604015E-2,-1.74365E-2,-6.212314E-3,5.5213337E-4,-1.1901427E-2,-2.739489E-3,-2.0178063E-2,-1.46112535E-2,-2.175617E-2,-3.0466601E-2,1.9430098E-4,7.040936E-3,-7.6911E-3,5.333506E-4,-5.501497E-3,-1.1118152E-2,-8.048213E-3,-1.9245287E-2,1.59366E-2,6.1489227E-3,8.525181E-3,2.9566636E-2,4.9341917E-3,1.8950539E-2,7.386693E-4,8.081748E-3,-6.4601973E-3,6.2765105E-4,1.0577399E-2,4.700455E-3,8.608441E-3,2.0758862E-2,3.7489306E-2,1.5153535E-2,7.496673E-3,2.7810453E-2,2.1132963E-2,9.132362E-3],"split_indices":[1,1,1,1,1,6,1,6,6,6,6,1,1,6,6,0,0,5,0,5,6,5,6,5,5,5,2,1,5,0,2,2,0,1,3,1,5,2,2,5,5,0,0,2,0,1,1,5,1,0,5,2,6,0,0,0,0,0,0,0,0,0,0,0,0,0,0,0,0,0,0,0,0,0,0,0,0,0,0,0,0,0,0,0,0,0,0,0,0,0,0,0,0],"split_type":[0,0,0,0,0,0,0,0,0,0,0,0,0,0,0,0,0,0,0,0,0,0,0,0,0,0,0,0,0,0,0,0,0,0,0,0,0,0,0,0,0,0,0,0,0,0,0,0,0,0,0,0,0,0,0,0,0,0,0,0,0,0,0,0,0,0,0,0,0,0,0,0,0,0,0,0,0,0,0,0,0,0,0,0,0,0,0,0,0,0,0,0,0],"sum_hessian":[1.399E3,6.99E2,7E2,3.17E2,3.82E2,3.06E2,3.94E2,1.15E2,2.02E2,2.02E2,1.8E2,1.15E2,1.91E2,2.29E2,1.65E2,4.5E1,7E1,1.14E2,8.8E1,4.3E1,1.59E2,8.8E1,9.2E1,6.6E1,4.9E1,1.18E2,7.3E1,1.28E2,1.01E2,9.3E1,7.2E1,3.5E1,7.9E1,1.7E1,2.6E1,9.2E1,6.7E1,5.3E1,3.5E1,5.5E1,3.7E1,4.9E1,1.7E1,2.3E1,2.6E1,4E1,7.8E1,5E1,2.3E1,4.8E1,8E1,5E1,5.1E1,1.8E1,5.4E1,1.5E1,2E1,8E0,9E0,2.4E1,2E0,6.1E1,3.1E1,2.8E1,3.9E1,3.3E1,2E1,2.3E1,1.2E1,1.9E1,3.6E1,7E0,3E1,4.5E1,4E0,1E0,2.2E1,1E0,2.5E1,1.3E1,2.7E1,3E1,4.8E1,2.3E1,2.7E1,5E0,1.8E1,7.8E1,2E0,1E0,4.9E1,4.4E1,7E0],"tree_param":{"num_deleted":"0","num_feature":"9","num_nodes":"93","size_leaf_vector":"1"}},{"base_weights":[3.5845977E-5,-4.6609545E-1,4.6550214E-1,-7.190166E-1,-2.5488126E-1,2.4548961E-1,7.358822E-1,-8.580523E-1,-6.360257E-1,-3.6783108E-1,-1.2679456E-1,1.08213834E-1,3.9399227E-1,8.19445E-1,5.7999235E-1,-3.6274068E-2,-4.7545414E-2,-5.0121E-1,-7.111036E-1,-1.5425074E-1,-4.2426673E-1,-4.949149E-3,-2.4203593E-1,2.637086E-1,2.7937157E-2,4.667379E-1,2.1223922E-1,7.187532E-1,9.442819E-1,6.228028E-1,4.1278797E-1,-1.568137E-2,-5.3850883E-1,-6.3353604E-1,-3.841239E-2,-5.350342E-2,-2.1570262E-1,-3.5148588E-1,-5.17566E-1,5.4483075E-2,-9.396001E-2,-1.7720087E-1,-3.3121297E-1,2.8599805E-1,9.233316E-3,-8.5822E-2,8.023508E-2,3.7821624E-1,5.2505577E-1,1.1912799E-1,2.7070343E-1,3.8782597E-2,3.0765308E-2,4.9053233E-2,3.598709E-2,2.6917879E-2,3.5987385E-2,2.237708E-2,1.1117619E-2,-2.7131015E-2,-7.1927905E-3,-3.4374587E-2,-2.5454512E-2,-5.9362147E-3,5.2728533E-4,-1.133016E-2,-2.6481748E-3,-1.3098672E-2,-1.8941196E-2,-2.070587E-2,-2.8981358E-2,1.8487117E-4,6.7056515E-3,-8.243037E-3,-6.9501734E-4,-1.2996218E-2,-7.0298277E-3,-7.6960996E-3,-1.831406E-2,1.4876668E-2,5.9029697E-3,5.136952E-4,-6.883444E-3,8.376662E-3,1.4714436E-3,2.1010084E-2,1.2349498E-2,2.8192326E-2,2.136399E-2,9.887742E-3,3.200501E-3,1.5990237E-2,5.211638E-3],"categories":[],"categories_nodes":[],"categories_segments":[],"categories_sizes":[],"default_left":[0,0,0,0,0,0,0,0,0,0,0,0,0,0,0,0,0,0,0,0,0,0,0,0,0,0,0,0,0,0,0,0,0,0,0,0,0,0,0,0,0,0,0,0,0,0,0,0,0,0,0,0,0,0,0,0,0,0,0,0,0,0,0,0,0,0,0,0,0,0,0,0,0,0,0,0,0,0,0,0,0,0,0,0,0,0,0,0,0,0,0,0,0],"id":1,"left_children":[1,3,5,7,9,11,13,15,17,19,21,23,25,27,29,-1,-1,31,33,35,37,39,41,43,45,47,49,51,53,55,57,-1,59,61,-1,63,65,67,69,71,73,75,77,79,-1,81,83,85,87,89,91,-1,-1,-1,-1,-1,-1,-1,-1,-1,-1,-1,-1,-1,-1,-1,-1,-1,-1,-1,-1,-1,-1,-1,-1,-1,-1,-1,-1,-1,-1,-1,-1,-1,-1,-1,-1,-1,-1,-1,-1,-1,-1],"loss_changes":[3.0397272E2,3.721112E1,4.1519745E1,3.1235504E0,5.494364E0,7.8670616E0,3.6150665E0,7.3809814E-1,1.6982956E0,2.3814297E0,2.5403373E0,2.5266006E0,2.3601856E0,1.8604431E0,5.517769E-1,0E0,0E0,3.628521E-1,8.065033E-2,2.608682E-1,9.0454483E-1,4.759393E-1,4.7901583E-1,6.875038E-2,8.1005055E-1,4.8285103E-1,2.6715374E-1,2.05513E-1,1.2435913E-2,3.3293533E-1,7.25646E-2,0E0,2.2542953E-2,5.2879333E-2,0E0,7.644416E-2,3.589499E-2,1.2833786E-1,1.9653511E-1,2.1788335E-1,2.0205471E-1,1.3302541E-1,1.7987776E-1,6.5609455E-2,0E0,2.1565211E-1,4.075514E-1,2.0475197E-1,5.112648E-2,8.701801E-2,2.3640537E-1,0E0,0E0,0E0,0E0,0E0,0E0,0E0,0E0,0E0,0E0,0E0,0E0,0E0,0E0,0E0,0E0,0E0,0E0,0E0,0E0,0E0,0E0,0E0,0E0,0E0,0E0,0E0,0E0,0E0,0E0,0E0,0E0,0E0,0E0,0E0,0E0,0E0,0E0,0E0,0E0,0E0,0E0],"parents":[2147483647,0,0,1,1,2,2,3,3,4,4,5,5,6,6,7,7,8,8,9,9,10,10,11,11,12,12,13,13,14,14,17,17,18,18,19,19,20,20,21,21,22,22,23,23,24,24,25,25,26,26,27,27,28,28,29,29,30,30,32,32,33,33,35,35,36,36,37,37,38,38,39,39,40,40,41,41,42,42,43,43,45,45,46,46,47,47,48,48,49,49,50,50],"right_children":[2,4,6,8,10,12,14,16,18,20,22,24,26,28,30,-1,-1,32,34,36,38,40,42,44,46,48,50,52,54,56,58,-1,60,62,-1,64,66,68,70,72,74,76,78,80,-1,82,84,86,88,90,92,-1,-1,-1,-1,-1,-1,-1,-1,-1,-1,-1,-1,-1,-1,-1,-1,-1,-1,-1,-1,-1,-1,-1,-1,-1,-1,-1,-1,-1,-1,-1,-1,-1,-1,-1,-1,-1,-1,-1,-1,-1,-1],"split_conditions":[2.5086384E0,1.1654555E0,3.8761566E0,4.6584514E-1,1.8825936E0,3.2090967E0,3.0715338E2,2.1558612E2,1.8777998E2,1.3209369E2,2.7291302E2,2.2417192E2,3.6678745E2,4.553048E0,1.1447095E1,-3.6274068E-2,-4.7545414E-2,3.0980685E0,6.799819E0,5.0367355E0,3.505353E2,8.874995E0,4.2442606E2,1.0647792E1,2.7305143E0,3.0501417E1,2.8355686E1,1.0070806E1,2.6804123E2,4.431559E0,4.6334518E2,-1.568137E-2,4.4438953E1,9.0165216E-1,-3.841239E-2,1.6033009E0,9.419849E-6,4.7399917E0,5.899404E0,3.7196434E1,3.4267902E1,2.5336657E1,4.0133815E0,2.603039E1,9.233316E-3,6.540157E0,6.3355656E0,2.2918748E2,9.478014E0,1.40922785E1,1.0768696E1,3.8782597E-2,3.0765308E-2,4.9053233E-2,3.598709E-2,2.6917879E-2,3.5987385E-2,2.237708E-2,1.1117619E-2,-2.7131015E-2,-7.1927905E-3,-3.4374587E-2,-2.5454512E-2,-5.9362147E-3,5.2728533E-4,-1.133016E-2,-2.6481748E-3,-1.3098672E-2,-1.8941196E-2,-2.070587E-2,-2.8981358E-2,1.8487117E-4,6.7056515E-3,-8.243037E-3,-6.9501734E-4,-1.2996218E-2,-7.0298277E-3,-7.6960996E-3,-1.831406E-2,1.4876668E-2,5.9029697E-3,5.136952E-4,-6.883444E-3,8.376662E-3,1.4714436E-3,2.1010084E-2,1.2349498E-2,2.8192326E-2,2.136399E-2,9.887742E-3,3.200501E-3,1.5990237E-2,5.211638E-3],"split_indices":[1,1,1,1,1,1,6,6,6,6,6,6,6,1,5,0,0,5,5,5,6,5,6,5,1,2,2,5,6,1,6,0,2,1,0,1,3,5,5,2,2,2,5,0,0,5,5,6,5,0,5,0,0,0,0,0,0,0,0,0,0,0,0,0,0,0,0,0,0,0,0,0,0,0,0,0,0,0,0,0,0,0,0,0,0,0,0,0,0,0,0,0,0],"split_type":[0,0,0,0,0,0,0,0,0,0,0,0,0,0,0,0,0,0,0,0,0,0,0,0,0,0,0,0,0,0,0,0,0,0,0,0,0,0,0,0,0,0,0,0,0,0,0,0,0,0,0,0,0,0,0,0,0,0,0,0,0,0,0,0,0,0,0,0,0,0,0,0,0,0,0,0,0,0,0,0,0,0,0,0,0,0,0,0,0,0,0,0,0],"sum_hessian":[1.399E3,6.99E2,7E2,3.17E2,3.82E2,3.87E2,3.13E2,1.15E2,2.02E2,2.02E2,1.8E2,2.02E2,1.85E2,2.01E2,1.12E2,5.1E1,6.4E1,7.5E1,1.27E2,4.3E1,1.59E2,8.8E1,9.2E1,6.8E1,1.34E2,1.31E2,5.4E1,1.15E2,8.6E1,8.7E1,2.5E1,1.4E1,6.1E1,5.9E1,6.8E1,1.7E1,2.6E1,9.2E1,6.7E1,5.3E1,3.5E1,5.5E1,3.7E1,5.1E1,1.7E1,4.2E1,9.2E1,5.5E1,7.6E1,2.2E1,3.2E1,7E1,4.5E1,7.1E1,1.5E1,5E1,3.7E1,2E1,5E0,6E1,1E0,3.8E1,2.1E1,8E0,9E0,2.4E1,2E0,2.4E1,6.8E1,2.8E1,3.9E1,3.3E1,2E1,1.8E1,1.7E1,1.5E1,4E1,7E0,3E1,4.7E1,4E0,1.5E1,2.7E1,3.3E1,5.9E1,4E1,1.5E1,5.1E1,2.5E1,8E0,1.4E1,2.4E1,8E0],"tree_param":{"num_deleted":"0","num_feature":"9","num_nodes":"93","size_leaf_vector":"1"}},{"base_weights":[4.8633898E-5,-4.4333535E-1,4.4280005E-1,-6.7320967E-1,-2.3292293E-1,1.787403E-1,6.4691025E-1,-8.0189955E-1,-5.8621323E-1,-3.4027973E-1,-1.2072048E-1,3.336946E-1,8.419111E-2,5.4233557E-1,8.053335E-1,-2.8417844E-2,-8.4344125E-1,-4.8699602E-1,-3.5148755E-2,-2.2771558E-1,-4.401827E-1,-3.6766727E-2,-2.7362397E-1,2.5386256E-1,4.339957E-1,9.735502E-3,2.0278607E-1,6.2155145E-1,4.320074E-1,4.5461733E-2,6.626562E-1,-3.4828793E-2,-4.4612728E-2,-3.7156403E-1,-5.340288E-1,-1.1241761E-1,-2.8349096E-1,-4.862253E-1,-3.3475864E-1,2.9495247E-2,-1.1584564E-1,-3.2816198E-1,-1.6905384E-1,2.7683523E-1,8.797302E-3,5.2822256E-1,3.341645E-1,1.1024139E-1,-3.6959123E-2,1.3569357E-1,3.3690822E-1,2.548858E-2,6.773654E-1,4.675168E-1,2.9416284E-1,2.4700988E-2,7.0424414E-1,-2.1122957E-2,-1.36073455E-2,-1.2261167E-2,-2.7115569E-2,-1.3935018E-3,-9.02028E-3,-1.07065495E-2,-1.668756E-2,-1.9309107E-2,-2.7279193E-2,-1.893857E-2,-1.1895521E-2,4.1408516E-3,-2.4308756E-3,-2.702642E-3,-9.541723E-3,-1.7985037E-2,-8.802875E-3,-4.6963297E-4,-9.157078E-3,1.4429432E-2,5.6668497E-3,7.7867988E-3,2.6882326E-2,4.28558E-3,1.702119E-2,2.6230074E-3,9.767098E-3,-5.8220453E-3,6.8182434E-4,8.617911E-3,2.9449807E-3,8.188447E-3,1.8692588E-2,3.41771E-2,1.3622904E-2,1.8330595E-2,2.5837023E-2,8.061289E-3,1.6970888E-2,3.6412667E-2,2.2121677E-2],"categories":[],"categories_nodes":[],"categories_segments":[],"categories_sizes":[],"default_left":[0,0,0,0,0,0,0,0,0,0,0,0,0,0,0,0,0,0,0,0,0,0,0,0,0,0,0,0,0,0,0,0,0,0,0,0,0,0,0,0,0,0,0,0,0,0,0,0,0,0,0,0,0,0,0,0,0,0,0,0,0,0,0,0,0,0,0,0,0,0,0,0,0,0,0,0,0,0,0,0,0,0,0,0,0,0,0,0,0,0,0,0,0,0,0,0,0,0,0],"id":2,"left_children":[1,3,5,7,9,11,13,15,17,19,21,23,25,27,29,-1,31,33,-1,35,37,39,41,43,45,47,49,51,53,-1,55,-1,-1,57,59,61,63,65,67,69,71,73,75,77,-1,79,81,83,85,87,89,-1,91,93,95,-1,97,-1,-1,-1,-1,-1,-1,-1,-1,-1,-1,-1,-1,-1,-1,-1,-1,-1,-1,-1,-1,-1,-1,-1,-1,-1,-1,-1,-1,-1,-1,-1,-1,-1,-1,-1,-1,-1,-1,-1,-1,-1,-1],"loss_changes":[2.7502875E2,3.3701096E1,3.766638E1,3.269226E0,4.379692E0,4.469702E0,6.1072235E0,8.012543E-1,2.0093613E0,2.0026703E0,2.3134043E0,8.186655E-1,1.6933974E0,1.8377686E0,1.6952667E0,0E0,1.6706848E-1,4.1506195E-1,0E0,5.469017E-1,3.1292152E-1,6.21728E-1,3.0951786E-1,7.121849E-2,2.9382706E-1,5.625515E-1,6.201794E-1,5.1566315E-1,3.7153053E-1,0E0,1.360035E-1,0E0,0E0,6.7183495E-2,5.3592682E-2,1.7316696E-1,1.3769627E-1,1.8124104E-1,5.05507E-2,2.747586E-1,2.399084E-1,1.3335657E-1,5.226201E-2,6.3374996E-2,0E0,5.159378E-4,1.2810469E-2,1.7660657E-1,3.31345E-1,1.334449E-1,9.228778E-2,0E0,3.6346436E-2,2.1287727E-1,8.966255E-2,0E0,1.0946274E-2,0E0,0E0,0E0,0E0,0E0,0E0,0E0,0E0,0E0,0E0,0E0,0E0,0E0,0E0,0E0,0E0,0E0,0E0,0E0,0E0,0E0,0E0,0E0,0E0,0E0,0E0,0E0,0E0,0E0,0E0,0E0,0E0,0E0,0E0,0E0,0E0,0E0,0E0,0E0,0E0,0E0,0E0],"parents":[2147483647,0,0,1,1,2,2,3,3,4,4,5,5,6,6,7,7,8,8,9,9,10,10,11,11,12,12,13,13,14,14,16,16,17,17,19,19,20,20,21,21,22,22,23,23,24,24,25,25,26,26,27,27,28,28,30,30,33,33,34,34,35,35,36,36,37,37,38,38,39,39,40,40,41,41,42,42,43,43,45,45,46,46,47,47,48,48,49,49,50,50,52,52,53,53,54,54,56,56],"right_children":[2,4,6,8,10,12,14,16,18,20,22,24,26,28,30,-1,32,34,-1,36,38,40,42,44,46,48,50,52,54,-1,56,-1,-1,58,60,62,64,66,68,70,72,74,76,78,-1,80,82,84,86,88,90,-1,92,94,96,-1,98,-1,-1,-1,-1,-1,-1,-1,-1,-1,-1,-1,-1,-1,-1,-1,-1,-1,-1,-1,-1,-1,-1,-1,-1,-1,-1,-1,-1,-1,-1,-1,-1,-1,-1,-1,-1,-1,-1,-1,-1,-1,-1],"split_conditions":[2.5086384E0,1.220599E0,3.5767796E0,5.2040184E-1,1.8825936E0,2.191162E2,4.4506226E0,9.74054E1,2.8310864E2,2.5636664E2,3.6015808E2,3.2090967E0,3.1174355E0,2.9024765E2,2.6804123E2,-2.8417844E-2,4.7399917E0,4.900421E0,-3.5148755E-2,1.0724856E2,1.6651564E0,2.1194388E2,3.4730045E1,1.0647792E1,8.948037E0,5.74788E0,3.728541E1,3.892488E0,1.0173886E1,4.5461733E-2,2.460272E1,-3.4828793E-2,-4.4612728E-2,3.653764E1,1.1031224E1,5.0367355E0,8.610953E0,5.899404E0,3.6794365E1,8.874995E0,7.1664457E0,2.433129E0,1.8777687E1,2.603039E1,8.797302E-3,2.0868557E1,1.8054619E0,3.2346123E1,2.7305143E0,9.527276E0,3.1795557E0,2.548858E-2,1.4223149E1,3.8761566E0,3.8761566E0,2.4700988E-2,1.3163852E1,-2.1122957E-2,-1.36073455E-2,-1.2261167E-2,-2.7115569E-2,-1.3935018E-3,-9.02028E-3,-1.07065495E-2,-1.668756E-2,-1.9309107E-2,-2.7279193E-2,-1.893857E-2,-1.1895521E-2,4.1408516E-3,-2.4308756E-3,-2.702642E-3,-9.541723E-3,-1.7985037E-2,-8.802875E-3,-4.6963297E-4,-9.157078E-3,1.4429432E-2,5.6668497E-3,7.7867988E-3,2.6882326E-2,4.28558E-3,1.702119E-2,2.6230074E-3,9.767098E-3,-5.8220453E-3,6.8182434E-4,8.617911E-3,2.9449807E-3,8.188447E-3,1.8692588E-2,3.41771E-2,1.3622904E-2,1.8330595E-2,2.5837023E-2,8.061289E-3,1.6970888E-2,3.6412667E-2,2.2121677E-2],"split_indices":[1,1,1,1,1,6,1,6,6,6,6,1,1,6,6,0,5,5,0,6,1,6,2,5,5,5,2,1,5,0,2,0,0,2,7,5,5,5,2,5,5,1,4,0,0,2,0,2,1,5,1,0,5,1,1,0,5,0,0,0,0,0,0,0,0,0,0,0,0,0,0,0,0,0,0,0,0,0,0,0,0,0,0,0,0,0,0,0,0,0,0,0,0,0,0,0,0,0,0],"split_type":[0,0,0,0,0,0,0,0,0,0,0,0,0,0,0,0,0,0,0,0,0,0,0,0,0,0,0,0,0,0,0,0,0,0,0,0,0,0,0,0,0,0,0,0,0,0,0,0,0,0,0,0,0,0,0,0,0,0,0,0,0,0,0,0,0,0,0,0,0,0,0,0,0,0,0,0,0,0,0,0,0,0,0,0,0,0,0,0,0,0,0,0,0,0,0,0,0,0,0],"sum_hessian":[1.399E3,6.99E2,7E2,3.33E2,3.66E2,3.06E2,3.94E2,1.31E2,2.02E2,1.86E2,1.8E2,1.15E2,1.91E2,2.4E2,1.54E2,2.2E1,1.09E2,1.12E2,9E1,8.9E1,9.7E1,1.17E2,6.3E1,6.6E1,4.9E1,1.18E2,7.3E1,1.37E2,1.03E2,8.6E1,6.8E1,3.1E1,7.8E1,3.5E1,7.7E1,3E1,5.9E1,6.5E1,3.2E1,6.4E1,5.3E1,4E1,2.3E1,4.9E1,1.7E1,2.3E1,2.6E1,3.7E1,8.1E1,5E1,2.3E1,4.9E1,8.8E1,8E1,2.3E1,1.6E1,5.2E1,2.1E1,1.4E1,3E0,7.4E1,1.4E1,1.6E1,2.7E1,3.2E1,2.7E1,3.8E1,2E1,1.2E1,3.8E1,2.6E1,3E1,2.3E1,3.2E1,8E0,2E0,2.1E1,4.5E1,4E0,1E0,2.2E1,1E0,2.5E1,2.3E1,1.4E1,3.1E1,5E1,3.3E1,1.7E1,5E0,1.8E1,8.6E1,2E0,2.9E1,5.1E1,7E0,1.6E1,4.6E1,6E0],"tree_param":{"num_deleted":"0","num_feature":"9","num_nodes":"99","size_leaf_vector":"1"}},{"base_weights":[6.225935E-5,-4.217104E-1,4.2123315E-1,-6.401992E-1,-2.2171865E-1,1.7022856E-1,6.1525136E-1,-7.764345E-1,-5.651148E-1,-3.2388192E-1,-1.149438E-1,3.1774154E-1,8.021953E-2,5.268093E-1,7.8551453E-1,-6.409114E-1,-4.2665124E-2,-4.7954333E-1,-3.358801E-2,-2.1893668E-1,-4.2108068E-1,2.28277E-3,-2.1425082E-1,2.4160072E-1,4.1341537E-1,9.309593E-3,1.9316633E-1,6.041726E-1,4.2039436E-1,4.3872174E-2,6.4754903E-1,-9.346724E-3,-3.2342285E-2,-5.698243E-1,-4.1175836E-1,-1.07132606E-1,-2.7130747E-1,-4.6374664E-1,-3.212567E-1,5.1457144E-2,-1.0343562E-1,-1.6073814E-1,-3.1025296E-1,2.6339552E-1,8.381869E-3,2.51628E-2,3.1824544E-1,1.1323314E-1,-3.188471E-2,1.2913565E-1,3.211829E-1,2.4239639E-2,6.5728956E-1,4.9454054E-1,3.5474047E-1,3.3768315E-2,2.1207485E-2,-2.9880872E-2,-1.9805536E-2,-1.4323837E-2,-2.2314755E-2,-1.3284691E-3,-8.595794E-3,-1.0261884E-2,-1.5984075E-2,-1.8378137E-2,-2.6120758E-2,-1.832531E-2,-1.13465E-2,2.0339864E-4,5.9211156E-3,-8.115268E-3,-1.3776211E-3,-1.1070108E-2,-4.7601643E-3,-1.7285425E-2,-6.2054535E-3,1.5349217E-2,1.0376366E-2,4.1784407E-3,1.6202865E-2,8.523304E-3,1.9095972E-3,-5.102237E-3,1.03357E-3,9.150873E-3,3.9169635E-3,7.84726E-3,1.7807154E-2,3.6363836E-2,2.927658E-2,1.999355E-2,2.762851E-2,1.9858304E-2,1.1667764E-2],"categories":[],"categories_nodes":[],"categories_segments":[],"categories_sizes":[],"default_left":[0,0,0,0,0,0,0,0,0,0,0,0,0,0,0,0,0,0,0,0,0,0,0,0,0,0,0,0,0,0,0,0,0,0,0,0,0,0,0,0,0,0,0,0,0,0,0,0,0,0,0,0,0,0,0,0,0,0,0,0,0,0,0,0,0,0,0,0,0,0,0,0,0,0,0,0,0,0,0,0,0,0,0,0,0,0,0,0,0,0,0,0,0,0,0],"id":3,"left_children":[1,3,5,7,9,11,13,15,17,19,21,23,25,27,29,31,-1,33,-1,35,37,39,41,43,45,47,49,51,53,-1,55,-1,-1,57,59,61,63,65,67,69,71,73,75,77,-1,-1,79,81,83,85,87,-1,89,91,93,-1,-1,-1,-1,-1,-1,-1,-1,-1,-1,-1,-1,-1,-1,-1,-1,-1,-1,-1,-1,-1,-1,-1,-1,-1,-1,-1,-1,-1,-1,-1,-1,-1,-1,-1,-1,-1,-1,-1,-1],"loss_changes":[2.4887137E2,3.0445229E1,3.4033585E1,2.9777527E0,3.966179E0,4.050703E0,5.534256E0,6.6152954E-1,1.6764069E0,1.8153114E0,2.1075864E0,7.45142E-1,1.5359393E0,1.9111862E0,1.1186523E0,3.0078888E-3,0E0,5.3033257E-1,0E0,5.0961876E-1,2.598915E-1,4.420079E-1,4.5358896E-1,6.38504E-2,2.6734734E-1,5.1305634E-1,5.651009E-1,6.3251495E-1,3.795185E-1,0E0,6.7762375E-2,0E0,0E0,9.508133E-3,1.9665813E-1,1.572259E-1,1.32545E-1,1.7477226E-1,5.3412437E-2,1.8357687E-1,1.1614314E-1,2.3733616E-1,1.8148875E-1,5.8053732E-2,0E0,0E0,9.744406E-3,1.3951376E-1,3.1922048E-1,1.2524962E-1,8.190775E-2,0E0,8.139038E-2,5.9218407E-2,2.3690987E-1,0E0,0E0,0E0,0E0,0E0,0E0,0E0,0E0,0E0,0E0,0E0,0E0,0E0,0E0,0E0,0E0,0E0,0E0,0E0,0E0,0E0,0E0,0E0,0E0,0E0,0E0,0E0,0E0,0E0,0E0,0E0,0E0,0E0,0E0,0E0,0E0,0E0,0E0,0E0,0E0],"parents":[2147483647,0,0,1,1,2,2,3,3,4,4,5,5,6,6,7,7,8,8,9,9,10,10,11,11,12,12,13,13,14,14,15,15,17,17,19,19,20,20,21,21,22,22,23,23,24,24,25,25,26,26,27,27,28,28,30,30,33,33,34,34,35,35,36,36,37,37,38,38,39,39,40,40,41,41,42,42,43,43,46,46,47,47,48,48,49,49,50,50,52,52,53,53,54,54],"right_children":[2,4,6,8,10,12,14,16,18,20,22,24,26,28,30,32,-1,34,-1,36,38,40,42,44,46,48,50,52,54,-1,56,-1,-1,58,60,62,64,66,68,70,72,74,76,78,-1,-1,80,82,84,86,88,-1,90,92,94,-1,-1,-1,-1,-1,-1,-1,-1,-1,-1,-1,-1,-1,-1,-1,-1,-1,-1,-1,-1,-1,-1,-1,-1,-1,-1,-1,-1,-1,-1,-1,-1,-1,-1,-1,-1,-1,-1,-1,-1],"split_conditions":[2.5086384E0,1.220599E0,3.5767796E0,4.6584514E-1,1.8825936E0,2.191162E2,4.5183406E0,1.9216335E2,2.8310864E2,2.597163E2,2.4386916E2,3.2090967E0,3.1174355E0,2.9024765E2,2.6804123E2,6.0311025E-1,-4.2665124E-2,3.0501417E1,-3.358801E-2,1.0724856E2,1.6651564E0,1.0280455E1,9.957175E0,1.0647792E1,8.948037E0,5.3469653E0,3.728541E1,3.892488E0,6.540157E0,4.3872174E-2,1.335841E1,-9.346724E-3,-3.2342285E-2,1.0732709E0,3.4727182E0,5.0367355E0,8.610953E0,5.899404E0,3.6794365E1,3.7196434E1,3.3976852E1,2.2017944E0,3.7955505E1,1.3634329E2,8.381869E-3,2.51628E-2,1.8054619E0,3.488452E2,2.75856E0,7.224142E0,3.1795557E0,2.4239639E-2,7.6500535E0,3.9689777E0,4.304876E2,3.3768315E-2,2.1207485E-2,-2.9880872E-2,-1.9805536E-2,-1.4323837E-2,-2.2314755E-2,-1.3284691E-3,-8.595794E-3,-1.0261884E-2,-1.5984075E-2,-1.8378137E-2,-2.6120758E-2,-1.832531E-2,-1.13465E-2,2.0339864E-4,5.9211156E-3,-8.115268E-3,-1.3776211E-3,-1.1070108E-2,-4.7601643E-3,-1.7285425E-2,-6.2054535E-3,1.5349217E-2,1.0376366E-2,4.1784407E-3,1.6202865E-2,8.523304E-3,1.9095972E-3,-5.102237E-3,1.03357E-3,9.150873E-3,3.9169635E-3,7.84726E-3,1.7807154E-2,3.6363836E-2,2.927658E-2,1.999355E-2,2.762851E-2,1.9858304E-2,1.1667764E-2],"split_indices":[1,1,1,1,1,6,1,6,6,6,6,1,1,6,6,5,0,2,0,6,1,5,5,5,5,5,2,1,5,0,5,0,0,1,5,5,5,5,2,2,2,1,2,6,0,0,0,6,1,5,1,0,5,1,6,0,0,0,0,0,0,0,0,0,0,0,0,0,0,0,0,0,0,0,0,0,0,0,0,0,0,0,0,0,0,0,0,0,0,0,0,0,0,0,0],"split_type":[0,0,0,0,0,0,0,0,0,0,0,0,0,0,0,0,0,0,0,0,0,0,0,0,0,0,0,0,0,0,0,0,0,0,0,0,0,0,0,0,0,0,0,0,0,0,0,0,0,0,0,0,0,0,0,0,0,0,0,0,0,0,0,0,0,0,0,0,0,0,0,0,0,0,0,0,0,0,0,0,0,0,0,0,0,0,0,0,0,0,0,0,0,0,0],"sum_hessian":[1.399E3,6.99E2,7E2,3.33E2,3.66E2,3.06E2,3.94E2,1.15E2,2.18E2,1.86E2,1.8E2,1.15E2,1.91E2,2.62E2,1.32E2,4.5E1,7E1,1.24E2,9.4E1,9.1E1,9.5E1,8.3E1,9.7E1,6.6E1,4.9E1,1.18E2,7.3E1,1.49E2,1.13E2,7.6E1,5.6E1,1E0,4.4E1,5E1,7.4E1,3E1,6.1E1,6.4E1,3.1E1,5.7E1,2.6E1,6.4E1,3.3E1,4.9E1,1.7E1,2.3E1,2.6E1,3.3E1,8.5E1,5E1,2.3E1,4.9E1,1E2,5E1,6.3E1,4.8E1,8E0,4.1E1,9E0,1.8E1,5.6E1,1.4E1,1.6E1,2.8E1,3.3E1,2.7E1,3.7E1,1.9E1,1.2E1,3.4E1,2.3E1,1.4E1,1.2E1,3.2E1,3.2E1,2.7E1,6E0,2.5E1,2.4E1,1E0,2.5E1,1.8E1,1.5E1,3.6E1,4.9E1,2.3E1,2.7E1,5E0,1.8E1,4.6E1,5.4E1,2.2E1,2.8E1,4.5E1,1.8E1],"tree_param":{"num_deleted":"0","num_feature":"9","num_nodes":"95","size_leaf_vector":"1"}},{"base_weights":[8.434917E-5,-4.0113536E-1,4.007316E-1,-6.1877507E-1,-2.1938454E-1,1.6212343E-1,5.8516693E-1,-7.383401E-1,-5.4740405E-1,-3.547417E-1,-1.3815857E-1,3.025411E-1,7.644336E-2,4.787068E-1,7.135828E-1,-6.219211E-1,-4.1005805E-2,-4.2946267E-1,-6.131552E-1,-2.5143754E-1,-4.4766802E-1,-2.8120248E-2,-2.3034252E-1,2.3002975E-1,3.936555E-1,8.897605E-3,1.8403122E-1,5.510753E-1,3.8373068E-1,7.590199E-1,4.8397654E-1,-3.399645E-2,-2.5195647E-2,-1.34507315E-2,-4.6135393E-1,-5.4182357E-1,-3.331482E-2,-1.6780227E-1,-3.031991E-1,-3.6181295E-1,-2.4899127E-2,2.3976492E-2,-1.2119137E-1,-2.8085187E-1,-1.4008498E-1,2.5074023E-1,7.98606E-3,4.7914168E-1,3.0308798E-1,9.440142E-2,-3.7256982E-2,1.22935034E-1,3.0619264E-1,4.848458E-1,3.2153904E-2,4.145312E-1,2.5848657E-1,4.3320823E-2,6.922447E-1,9.252501E-3,2.4886834E-2,-2.3245366E-2,-6.1149183E-3,-2.957956E-2,-2.1448541E-2,-4.858592E-3,-1.0597154E-2,-1.7319126E-2,-1.0118842E-2,-1.8663166E-2,-6.526073E-3,-1.6188564E-3,4.395611E-3,-7.769727E-3,1.7522797E-3,-1.1729999E-2,-1.866136E-2,-3.8554077E-3,-1.0693491E-2,1.3091788E-2,4.9256682E-3,1.209372E-2,2.507596E-2,4.0739775E-3,1.5423878E-2,5.6462287E-4,6.77763E-3,-5.583848E-3,4.5333055E-4,8.712388E-3,3.728109E-3,7.520288E-3,1.6963653E-2,2.6538566E-2,2.0327339E-2,1.6561275E-2,2.3032887E-2,1.588477E-2,7.78332E-3,3.635704E-2,2.6732603E-2],"categories":[],"categories_nodes":[],"categories_segments":[],"categories_sizes":[],"default_left":[0,0,0,0,0,0,0,0,0,0,0,0,0,0,0,0,0,0,0,0,0,0,0,0,0,0,0,0,0,0,0,0,0,0,0,0,0,0,0,0,0,0,0,0,0,0,0,0,0,0,0,0,0,0,0,0,0,0,0,0,0,0,0,0,0,0,0,0,0,0,0,0,0,0,0,0,0,0,0,0,0,0,0,0,0,0,0,0,0,0,0,0,0,0,0,0,0,0,0,0,0],"id":4,"left_children":[1,3,5,7,9,11,13,15,17,19,21,23,25,27,29,31,-1,33,35,37,39,41,43,45,47,49,51,53,55,57,59,-1,-1,-1,61,63,-1,65,67,69,-1,71,73,75,77,79,-1,81,83,85,87,89,91,93,-1,95,97,-1,99,-1,-1,-1,-1,-1,-1,-1,-1,-1,-1,-1,-1,-1,-1,-1,-1,-1,-1,-1,-1,-1,-1,-1,-1,-1,-1,-1,-1,-1,-1,-1,-1,-1,-1,-1,-1,-1,-1,-1,-1,-1,-1],"loss_changes":[2.2520732E2,2.7553596E1,3.0754578E1,2.3094711E0,4.161888E0,3.6703901E0,5.0585175E0,5.9430313E-1,1.3108902E0,1.2601948E0,2.4381704E0,6.758385E-1,1.3936465E0,1.2937851E0,1.4792252E0,1.3336182E-2,0E0,2.6477242E-1,1.2418747E-1,2.521596E-1,1.394844E-1,5.411117E-1,5.578661E-1,5.7511568E-2,2.4189186E-1,4.7313794E-1,5.1466393E-1,4.315834E-1,2.708931E-1,4.47258E-1,3.9518356E-2,0E0,0E0,0E0,1.7840385E-2,8.3208084E-2,0E0,6.98179E-2,1.12761736E-1,3.338051E-2,0E0,2.62263E-1,2.1919781E-1,2.6706123E-1,2.1119887E-1,5.8657408E-2,0E0,6.1221123E-3,7.1134567E-3,1.4211056E-1,2.6990977E-1,1.13596916E-1,7.265544E-2,5.391121E-2,0E0,1.4329815E-1,8.44785E-2,0E0,1.336708E-1,0E0,0E0,0E0,0E0,0E0,0E0,0E0,0E0,0E0,0E0,0E0,0E0,0E0,0E0,0E0,0E0,0E0,0E0,0E0,0E0,0E0,0E0,0E0,0E0,0E0,0E0,0E0,0E0,0E0,0E0,0E0,0E0,0E0,0E0,0E0,0E0,0E0,0E0,0E0,0E0,0E0,0E0],"parents":[2147483647,0,0,1,1,2,2,3,3,4,4,5,5,6,6,7,7,8,8,9,9,10,10,11,11,12,12,13,13,14,14,15,15,17,17,18,18,19,19,20,20,21,21,22,22,23,23,24,24,25,25,26,26,27,27,28,28,29,29,30,30,34,34,35,35,37,37,38,38,39,39,41,41,42,42,43,43,44,44,45,45,47,47,48,48,49,49,50,50,51,51,52,52,53,53,55,55,56,56,58,58],"right_children":[2,4,6,8,10,12,14,16,18,20,22,24,26,28,30,32,-1,34,36,38,40,42,44,46,48,50,52,54,56,58,60,-1,-1,-1,62,64,-1,66,68,70,-1,72,74,76,78,80,-1,82,84,86,88,90,92,94,-1,96,98,-1,100,-1,-1,-1,-1,-1,-1,-1,-1,-1,-1,-1,-1,-1,-1,-1,-1,-1,-1,-1,-1,-1,-1,-1,-1,-1,-1,-1,-1,-1,-1,-1,-1,-1,-1,-1,-1,-1,-1,-1,-1,-1,-1],"split_conditions":[2.5086384E0,1.1654555E0,3.5767796E0,4.6584514E-1,1.6651564E0,2.191162E2,4.364499E0,2.1558612E2,1.8777998E2,2.5636664E2,2.5026968E2,3.2090967E0,3.1174355E0,2.8536145E2,4.012403E2,3.2528408E1,-4.1005805E-2,3.0980685E0,6.799819E0,1.29991E2,5.899404E0,9.915787E0,2.2017944E0,1.0647792E1,8.948037E0,6.5059342E0,3.728541E1,3.4962574E1,1.0173886E1,1.4219138E2,2.0645615E1,-3.399645E-2,-2.5195647E-2,-1.34507315E-2,4.4438953E1,9.0165216E-1,-3.331482E-2,6.1201572E0,3.5617825E1,4.148837E1,-2.4899127E-2,2.1644216E0,2.41711E0,1.0346097E1,8.224949E0,2.603039E1,7.98606E-3,2.3830875E1,1.8054619E0,2.7305143E0,2.7305143E0,7.224142E0,3.1795557E0,1.0218105E1,3.2153904E-2,3.8761566E0,4.0774356E2,4.3320823E-2,1.2228031E1,9.252501E-3,2.4886834E-2,-2.3245366E-2,-6.1149183E-3,-2.957956E-2,-2.1448541E-2,-4.858592E-3,-1.0597154E-2,-1.7319126E-2,-1.0118842E-2,-1.8663166E-2,-6.526073E-3,-1.6188564E-3,4.395611E-3,-7.769727E-3,1.7522797E-3,-1.1729999E-2,-1.866136E-2,-3.8554077E-3,-1.0693491E-2,1.3091788E-2,4.9256682E-3,1.209372E-2,2.507596E-2,4.0739775E-3,1.5423878E-2,5.6462287E-4,6.77763E-3,-5.583848E-3,4.5333055E-4,8.712388E-3,3.728109E-3,7.520288E-3,1.6963653E-2,2.6538566E-2,2.0327339E-2,1.6561275E-2,2.3032887E-2,1.588477E-2,7.78332E-3,3.635704E-2,2.6732603E-2],"split_indices":[1,1,1,1,1,6,1,6,6,6,6,1,1,6,6,2,0,5,5,6,5,5,1,5,5,5,2,2,5,6,2,0,0,0,2,1,0,5,2,2,0,1,1,5,5,0,0,2,0,1,1,5,1,5,0,1,6,0,5,0,0,0,0,0,0,0,0,0,0,0,0,0,0,0,0,0,0,0,0,0,0,0,0,0,0,0,0,0,0,0,0,0,0,0,0,0,0,0,0,0,0],"split_type":[0,0,0,0,0,0,0,0,0,0,0,0,0,0,0,0,0,0,0,0,0,0,0,0,0,0,0,0,0,0,0,0,0,0,0,0,0,0,0,0,0,0,0,0,0,0,0,0,0,0,0,0,0,0,0,0,0,0,0,0,0,0,0,0,0,0,0,0,0,0,0,0,0,0,0,0,0,0,0,0,0,0,0,0,0,0,0,0,0,0,0,0,0,0,0,0,0,0,0,0,0],"sum_hessian":[1.399E3,6.99E2,7E2,3.17E2,3.82E2,3.06E2,3.94E2,1.15E2,2.02E2,1.42E2,2.4E2,1.15E2,1.91E2,2.18E2,1.76E2,5.1E1,6.4E1,7.5E1,1.27E2,6.9E1,7.3E1,1.1E2,1.3E2,6.6E1,4.9E1,1.18E2,7.3E1,1.21E2,9.7E1,1.45E2,3.1E1,3.1E1,2E1,1.4E1,6.1E1,5.9E1,6.8E1,2.8E1,4.1E1,3E1,4.3E1,7.1E1,3.9E1,8.2E1,4.8E1,4.9E1,1.7E1,2.3E1,2.6E1,4.1E1,7.7E1,5E1,2.3E1,7.4E1,4.7E1,7.6E1,2.1E1,5.1E1,9.4E1,2E0,2.9E1,6E1,1E0,3.8E1,2.1E1,1.2E1,1.6E1,2.7E1,1.4E1,2.8E1,2E0,3.8E1,3.3E1,3.2E1,7E0,5.7E1,2.5E1,2.7E1,2.1E1,4.5E1,4E0,3E0,2E1,1E0,2.5E1,1.4E1,2.7E1,2.9E1,4.8E1,2.3E1,2.7E1,5E0,1.8E1,4.3E1,3.1E1,3E1,4.6E1,1.2E1,9E0,7.4E1,2E1],"tree_param":{"num_deleted":"0","num_feature":"9","num_nodes":"101","size_leaf_vector":"1"}},{"base_weights":[1.05937805E-4,-3.8160506E-1,3.8127226E-1,-5.885513E-1,-2.0878388E-1,2.0089667E-1,6.0294247E-1,-5.005077E-1,-6.7565006E-1,-3.3765477E-1,-1.3145058E-1,8.859172E-2,3.2238597E-1,5.247023E-1,7.2017145E-1,-5.99391E-1,-4.167703E-1,-3.925838E-2,-6.0715353E-1,-2.3947842E-1,-4.259614E-1,-2.842831E-2,-2.206759E-1,1.8380189E-1,-3.8083608E-3,3.832755E-1,1.703895E-1,5.915737E-1,4.297559E-1,7.6411635E-1,4.836919E-1,-3.30318E-2,-2.4289945E-2,-4.6421322E-1,-3.0997068E-1,-8.342362E-3,-6.0988814E-1,-1.5994512E-1,-2.886924E-1,-3.4453484E-1,-2.3682458E-2,-7.621807E-2,6.0693454E-2,-2.707616E-1,-1.333776E-1,2.1891636E-1,1.09199785E-1,2.8434271E-2,-1.1246856E-1,3.0630037E-1,4.342798E-1,8.9445174E-2,2.2164191E-1,3.300655E-2,5.234405E-1,2.5582854E-2,3.7374282E-1,6.584935E-1,4.195596E-2,6.8983617E-3,2.4679257E-2,-1.3002785E-2,-2.3889888E-2,-1.1522632E-2,-1.8095005E-2,-2.1906583E-2,-3.1309683E-2,-4.634354E-3,-1.009846E-2,-1.6484093E-2,-9.646632E-3,-1.7762188E-2,-6.3085402E-3,-1.0917437E-3,-7.547424E-3,-2.0866785E-3,5.577793E-3,-1.6136771E-2,-1.0011618E-2,-1.5516862E-3,-8.671423E-3,1.1928177E-2,7.60894E-3,2.2145517E-3,1.0532269E-2,-2.16711E-3,3.256257E-3,-7.0143836E-3,1.0650778E-3,1.7241089E-2,1.0986036E-2,2.3415029E-2,1.747676E-2,7.882497E-3,2.1279654E-3,1.3106537E-2,4.2273044E-3,1.0696229E-2,2.6521254E-2,1.9195689E-2,7.6585053E-3,3.350053E-2,1.3311966E-2],"categories":[],"categories_nodes":[],"categories_segments":[],"categories_sizes":[],"default_left":[0,0,0,0,0,0,0,0,0,0,0,0,0,0,0,0,0,0,0,0,0,0,0,0,0,0,0,0,0,0,0,0,0,0,0,0,0,0,0,0,0,0,0,0,0,0,0,0,0,0,0,0,0,0,0,0,0,0,0,0,0,0,0,0,0,0,0,0,0,0,0,0,0,0,0,0,0,0,0,0,0,0,0,0,0,0,0,0,0,0,0,0,0,0,0,0,0,0,0,0,0,0,0],"id":5,"left_children":[1,3,5,7,9,11,13,15,17,19,21,23,25,27,29,31,33,-1,35,37,39,41,43,45,47,49,51,53,55,57,59,-1,-1,61,63,-1,65,67,69,71,-1,73,75,77,79,81,83,85,87,89,91,93,95,-1,97,-1,99,101,-1,-1,-1,-1,-1,-1,-1,-1,-1,-1,-1,-1,-1,-1,-1,-1,-1,-1,-1,-1,-1,-1,-1,-1,-1,-1,-1,-1,-1,-1,-1,-1,-1,-1,-1,-1,-1,-1,-1,-1,-1,-1,-1,-1,-1],"loss_changes":[2.0383902E2,2.49124E1,2.7907585E1,2.100418E0,3.7725983E0,5.265251E0,2.5021286E0,1.0915871E0,7.010193E-1,1.1377449E0,2.209045E0,1.7865778E0,1.6561241E0,9.6481705E-1,9.0862656E-1,1.7996407E-1,3.1719303E-1,0E0,1.98555E-2,2.2781563E-1,1.24157906E-1,4.859051E-1,5.2792597E-1,2.3805594E-1,3.67561E-1,3.8522148E-1,2.0834792E-1,1.6827393E-1,1.8953705E-1,2.5549698E-1,7.148266E-3,0E0,0E0,4.492283E-2,4.4608355E-2,0E0,5.6991577E-3,6.324732E-2,1.01249695E-1,2.7669907E-2,0E0,2.9744583E-1,2.1304299E-1,2.3229742E-1,1.95467E-1,5.1546812E-2,2.1455032E-1,2.1613948E-1,9.23011E-2,1.1100483E-1,5.83086E-2,6.684083E-2,1.6101587E-1,0E0,1.6239166E-2,0E0,6.0097694E-2,3.3943176E-2,0E0,0E0,0E0,0E0,0E0,0E0,0E0,0E0,0E0,0E0,0E0,0E0,0E0,0E0,0E0,0E0,0E0,0E0,0E0,0E0,0E0,0E0,0E0,0E0,0E0,0E0,0E0,0E0,0E0,0E0,0E0,0E0,0E0,0E0,0E0,0E0,0E0,0E0,0E0,0E0,0E0,0E0,0E0,0E0,0E0],"parents":[2147483647,0,0,1,1,2,2,3,3,4,4,5,5,6,6,7,7,8,8,9,9,10,10,11,11,12,12,13,13,14,14,15,15,16,16,18,18,19,19,20,20,21,21,22,22,23,23,24,24,25,25,26,26,27,27,28,28,29,29,30,30,33,33,34,34,36,36,37,37,38,38,39,39,41,41,42,42,43,43,44,44,45,45,46,46,47,47,48,48,49,49,50,50,51,51,52,52,54,54,56,56,57,57],"right_children":[2,4,6,8,10,12,14,16,18,20,22,24,26,28,30,32,34,-1,36,38,40,42,44,46,48,50,52,54,56,58,60,-1,-1,62,64,-1,66,68,70,72,-1,74,76,78,80,82,84,86,88,90,92,94,96,-1,98,-1,100,102,-1,-1,-1,-1,-1,-1,-1,-1,-1,-1,-1,-1,-1,-1,-1,-1,-1,-1,-1,-1,-1,-1,-1,-1,-1,-1,-1,-1,-1,-1,-1,-1,-1,-1,-1,-1,-1,-1,-1,-1,-1,-1,-1,-1,-1],"split_conditions":[2.5086384E0,1.1654555E0,3.8761566E0,2.5026968E2,1.6651564E0,3.2090967E0,4.553048E0,5.437927E-1,4.5258075E-1,2.5636664E2,2.5636664E2,2.7513232E2,3.6678745E2,2.9024765E2,3.9054346E2,3.2528408E1,3.6167507E1,-3.925838E-2,9.423533E-1,1.29991E2,5.899404E0,3.713603E1,2.2017944E0,2.191162E2,1.1994876E1,3.0501417E1,2.8355686E1,7.6500535E0,5.5396233E0,3.069612E1,1.8604918E1,-3.30318E-2,-2.4289945E-2,1.9556162E0,5.4971247E0,-8.342362E-3,1.6881193E0,6.1201572E0,3.5617825E1,4.148837E1,-2.3682458E-2,8.789045E0,1.969978E0,3.3422714E1,4.2203135E0,1.0647792E1,2.9168603E0,2.75856E0,3.833745E1,1.0827995E1,9.478014E0,1.40922785E1,1.0768696E1,3.300655E-2,3.0243736E1,2.5582854E-2,4.8633304E2,1.335841E1,4.195596E-2,6.8983617E-3,2.4679257E-2,-1.3002785E-2,-2.3889888E-2,-1.1522632E-2,-1.8095005E-2,-2.1906583E-2,-3.1309683E-2,-4.634354E-3,-1.009846E-2,-1.6484093E-2,-9.646632E-3,-1.7762188E-2,-6.3085402E-3,-1.0917437E-3,-7.547424E-3,-2.0866785E-3,5.577793E-3,-1.6136771E-2,-1.0011618E-2,-1.5516862E-3,-8.671423E-3,1.1928177E-2,7.60894E-3,2.2145517E-3,1.0532269E-2,-2.16711E-3,3.256257E-3,-7.0143836E-3,1.0650778E-3,1.7241089E-2,1.0986036E-2,2.3415029E-2,1.747676E-2,7.882497E-3,2.1279654E-3,1.3106537E-2,4.2273044E-3,1.0696229E-2,2.6521254E-2,1.9195689E-2,7.6585053E-3,3.350053E-2,1.3311966E-2],"split_indices":[1,1,1,6,1,1,1,1,1,6,6,6,6,6,6,2,2,0,0,6,5,2,1,6,5,2,2,5,5,2,4,0,0,5,5,0,5,5,2,2,0,5,1,2,5,5,1,1,2,5,5,0,5,0,8,0,6,5,0,0,0,0,0,0,0,0,0,0,0,0,0,0,0,0,0,0,0,0,0,0,0,0,0,0,0,0,0,0,0,0,0,0,0,0,0,0,0,0,0,0,0,0,0],"split_type":[0,0,0,0,0,0,0,0,0,0,0,0,0,0,0,0,0,0,0,0,0,0,0,0,0,0,0,0,0,0,0,0,0,0,0,0,0,0,0,0,0,0,0,0,0,0,0,0,0,0,0,0,0,0,0,0,0,0,0,0,0,0,0,0,0,0,0,0,0,0,0,0,0,0,0,0,0,0,0,0,0,0,0,0,0,0,0,0,0,0,0,0,0,0,0,0,0,0,0,0,0,0,0],"sum_hessian":[1.399E3,6.99E2,7E2,3.17E2,3.82E2,3.87E2,3.13E2,1.61E2,1.56E2,1.42E2,2.4E2,2.02E2,1.85E2,1.91E2,1.22E2,7.1E1,9E1,5.6E1,1E2,6.9E1,7.3E1,1.12E2,1.28E2,9.9E1,1.03E2,1.31E2,5.4E1,1.09E2,8.2E1,1.01E2,2.1E1,4.3E1,2.8E1,6E1,3E1,1E0,9.9E1,2.8E1,4.1E1,3E1,4.3E1,7.3E1,3.9E1,8E1,4.8E1,6.6E1,3.3E1,8E1,2.3E1,5.5E1,7.6E1,2.2E1,3.2E1,5E1,5.9E1,3E1,5.2E1,4.6E1,5.5E1,1E0,2E1,5E0,5.5E1,1.4E1,1.6E1,1.1E1,8.8E1,1.2E1,1.6E1,2.7E1,1.4E1,2.8E1,2E0,4.3E1,3E1,1.3E1,2.6E1,4.4E1,3.6E1,1.4E1,3.4E1,4.9E1,1.7E1,2.1E1,1.2E1,2.7E1,5.3E1,1.9E1,4E0,3.6E1,1.9E1,5.1E1,2.5E1,8E0,1.4E1,2.4E1,8E0,2E0,5.7E1,4.9E1,3E0,4.4E1,2E0],"tree_param":{"num_deleted":"0","num_feature":"9","num_nodes":"103","size_leaf_vector":"1"}},{"base_weights":[1.0928469E-4,-3.4639537E-1,3.8033056E-1,-5.264972E-1,-1.4888716E-1,2.0833817E-1,5.735693E-1,-6.427091E-1,-4.4639662E-1,-4.1500263E-2,-2.3658471E-1,9.939996E-2,3.0678526E-1,5.069857E-1,6.99441E-1,-2.2646843E-2,-6.81286E-1,-3.7342885E-1,-5.557528E-1,-1.4629306E-1,2.87939E-2,-3.0495018E-1,-1.3187984E-1,1.8731283E-1,1.5352588E-2,3.6463535E-1,1.6236717E-1,6.055517E-1,4.3857652E-1,5.8551264E-1,3.9355364E-2,-5.5587596E-1,-3.6358844E-2,-4.5437047E-1,-3.195166E-1,-2.1309102E-2,-2.9004438E-2,-4.6137646E-2,-1.941332E-1,-3.0196233E-2,1.2367536E-1,-2.398751E-1,-3.7039003E-1,-5.319757E-2,-1.826448E-1,2.3977877E-1,1.4969148E-1,9.1259435E-2,-1.6217738E-2,2.9148942E-1,4.1309685E-1,8.5408166E-2,2.1108504E-1,5.3742015E-1,3.4624796E-2,2.5731131E-2,3.8903645E-1,3.0241234E-2,1.453698E-2,-2.811941E-2,-7.8731E-3,-1.13448445E-2,-2.3647575E-2,-1.2275861E-2,-1.7677955E-2,-5.1061008E-5,-5.0087622E-3,-9.932231E-3,-1.1634231E-4,1.1435819E-3,-5.8280355E-3,9.092046E-3,3.5349827E-3,-1.4587815E-2,-9.504712E-3,-1.511938E-2,-2.0962294E-2,-2.5766689E-5,-4.707201E-3,-5.598903E-3,-1.1770747E-2,1.4341137E-2,7.7723037E-3,4.8183743E-3,1.0283283E-2,1.2976454E-3,7.269134E-3,2.0749254E-4,-5.6439075E-3,1.6171398E-2,9.571445E-3,2.2266788E-2,1.663653E-2,7.5321593E-3,2.028664E-3,1.2477421E-2,4.0394203E-3,7.4224058E-3,2.7111534E-2,1.2913063E-2,2.0401852E-2],"categories":[],"categories_nodes":[],"categories_segments":[],"categories_sizes":[],"default_left":[0,0,0,0,0,0,0,0,0,0,0,0,0,0,0,0,0,0,0,0,0,0,0,0,0,0,0,0,0,0,0,0,0,0,0,0,0,0,0,0,0,0,0,0,0,0,0,0,0,0,0,0,0,0,0,0,0,0,0,0,0,0,0,0,0,0,0,0,0,0,0,0,0,0,0,0,0,0,0,0,0,0,0,0,0,0,0,0,0,0,0,0,0,0,0,0,0,0,0,0,0],"id":6,"left_children":[1,3,5,7,9,11,13,15,17,19,21,23,25,27,29,-1,31,33,35,37,39,41,43,45,47,49,51,53,55,57,-1,59,-1,61,63,-1,-1,65,67,69,71,73,75,77,79,81,83,85,87,89,91,93,95,97,-1,-1,99,-1,-1,-1,-1,-1,-1,-1,-1,-1,-1,-1,-1,-1,-1,-1,-1,-1,-1,-1,-1,-1,-1,-1,-1,-1,-1,-1,-1,-1,-1,-1,-1,-1,-1,-1,-1,-1,-1,-1,-1,-1,-1,-1,-1],"loss_changes":[1.8457957E2,2.599559E1,2.2081879E1,3.278305E0,3.2957468E0,3.7767563E0,2.2770233E0,8.1882477E-1,1.6277504E0,1.1754575E0,1.3413162E0,1.253228E0,1.4947491E0,1.1436691E0,5.9783554E-1,0E0,3.2093048E-1,4.7010803E-1,3.656578E-2,2.97696E-1,5.4105324E-1,4.0513897E-1,3.0183923E-1,1.2793589E-1,2.1236356E-1,3.4749794E-1,1.88182E-1,1.19501114E-1,2.782421E-1,1.0878563E-1,0E0,1.0038376E-2,0E0,1.2092972E-1,1.3487816E-1,0E0,0E0,5.3533327E-2,3.6746502E-2,2.7765664E-1,1.0115427E-1,1.0208273E-1,5.9274197E-2,6.898028E-2,1.4890611E-1,8.633697E-2,1.3240361E-1,8.812654E-2,1.2449903E-1,1.1705017E-1,5.1324844E-2,6.1158434E-2,1.4522386E-1,1.49354935E-2,0E0,0E0,9.588909E-2,0E0,0E0,0E0,0E0,0E0,0E0,0E0,0E0,0E0,0E0,0E0,0E0,0E0,0E0,0E0,0E0,0E0,0E0,0E0,0E0,0E0,0E0,0E0,0E0,0E0,0E0,0E0,0E0,0E0,0E0,0E0,0E0,0E0,0E0,0E0,0E0,0E0,0E0,0E0,0E0,0E0,0E0,0E0,0E0],"parents":[2147483647,0,0,1,1,2,2,3,3,4,4,5,5,6,6,7,7,8,8,9,9,10,10,11,11,12,12,13,13,14,14,16,16,17,17,18,18,19,19,20,20,21,21,22,22,23,23,24,24,25,25,26,26,27,27,28,28,29,29,31,31,33,33,34,34,37,37,38,38,39,39,40,40,41,41,42,42,43,43,44,44,45,45,46,46,47,47,48,48,49,49,50,50,51,51,52,52,53,53,56,56],"right_children":[2,4,6,8,10,12,14,16,18,20,22,24,26,28,30,-1,32,34,36,38,40,42,44,46,48,50,52,54,56,58,-1,60,-1,62,64,-1,-1,66,68,70,72,74,76,78,80,82,84,86,88,90,92,94,96,98,-1,-1,100,-1,-1,-1,-1,-1,-1,-1,-1,-1,-1,-1,-1,-1,-1,-1,-1,-1,-1,-1,-1,-1,-1,-1,-1,-1,-1,-1,-1,-1,-1,-1,-1,-1,-1,-1,-1,-1,-1,-1,-1,-1,-1,-1,-1],"split_conditions":[2.6164322E0,1.4012654E0,3.8761566E0,5.895459E-1,2.5026968E2,3.2090967E0,4.6283674E0,9.74054E1,3.2472168E2,1.8961766E0,2.1206164E0,2.7513232E2,3.6678745E2,2.0547665E2,2.964834E1,-2.2646843E-2,4.7399917E0,3.0892994E1,2.3705113E0,5.4508505E0,3.7196434E1,7.889431E0,3.6283234E2,1.4796564E2,5.639E0,3.0501417E1,2.8355686E1,3.4962574E1,5.5396233E0,1.335841E1,3.9355364E-2,4.231504E1,-3.6358844E-2,1.9556162E0,4.834122E0,-2.1309102E-2,-2.9004438E-2,9.8785774E1,9.764974E-6,9.01763E0,6.1201572E0,3.0595633E1,3.6838434E2,2.1905346E1,8.224949E0,1.0406276E1,3.299002E1,2.7483103E1,1.29531765E1,2.2918748E2,9.478014E0,1.40922785E1,1.0768696E1,3.0243736E1,3.4624796E-2,2.5731131E-2,2.228175E1,3.0241234E-2,1.453698E-2,-2.811941E-2,-7.8731E-3,-1.13448445E-2,-2.3647575E-2,-1.2275861E-2,-1.7677955E-2,-5.1061008E-5,-5.0087622E-3,-9.932231E-3,-1.1634231E-4,1.1435819E-3,-5.8280355E-3,9.092046E-3,3.5349827E-3,-1.4587815E-2,-9.504712E-3,-1.511938E-2,-2.0962294E-2,-2.5766689E-5,-4.707201E-3,-5.598903E-3,-1.1770747E-2,1.4341137E-2,7.7723037E-3,4.8183743E-3,1.0283283E-2,1.2976454E-3,7.269134E-3,2.0749254E-4,-5.6439075E-3,1.6171398E-2,9.571445E-3,2.2266788E-2,1.663653E-2,7.5321593E-3,2.028664E-3,1.2477421E-2,4.0394203E-3,7.4224058E-3,2.7111534E-2,1.2913063E-2,2.0401852E-2],"split_indices":[1,1,1,1,6,1,1,6,6,1,1,6,6,6,2,0,5,2,5,5,2,5,6,6,5,2,2,2,5,5,0,2,0,5,5,0,0,6,3,5,5,2,6,4,5,5,2,2,5,6,5,0,5,8,0,0,2,0,0,0,0,0,0,0,0,0,0,0,0,0,0,0,0,0,0,0,0,0,0,0,0,0,0,0,0,0,0,0,0,0,0,0,0,0,0,0,0,0,0,0,0],"split_type":[0,0,0,0,0,0,0,0,0,0,0,0,0,0,0,0,0,0,0,0,0,0,0,0,0,0,0,0,0,0,0,0,0,0,0,0,0,0,0,0,0,0,0,0,0,0,0,0,0,0,0,0,0,0,0,0,0,0,0,0,0,0,0,0,0,0,0,0,0,0,0,0,0,0,0,0,0,0,0,0,0,0,0,0,0,0,0,0,0,0,0,0,0,0,0,0,0,0,0,0,0],"sum_hessian":[1.399E3,7.32E2,6.67E2,3.82E2,3.5E2,3.54E2,3.13E2,1.53E2,2.29E2,1.58E2,1.92E2,1.69E2,1.85E2,2.08E2,1.05E2,2.8E1,1.25E2,1.4E2,8.9E1,6.3E1,9.5E1,1.15E2,7.7E1,8.2E1,8.7E1,1.31E2,5.4E1,8.2E1,1.26E2,4.9E1,5.6E1,3.7E1,8.8E1,5.3E1,8.7E1,1.7E1,7.2E1,2.1E1,4.2E1,5.9E1,3.6E1,6E1,5.5E1,3.1E1,4.6E1,3.2E1,5E1,2.5E1,6.2E1,5.5E1,7.6E1,2.2E1,3.2E1,5E1,3.2E1,4.6E1,8E1,4.5E1,4E0,3.6E1,1E0,5E0,4.8E1,3E1,5.7E1,1.2E1,9E0,4.1E1,1E0,3.7E1,2.2E1,1.6E1,2E1,2.7E1,3.3E1,2.6E1,2.9E1,1.4E1,1.7E1,2.1E1,2.5E1,1.9E1,1.3E1,2.7E1,2.3E1,1.2E1,1.3E1,5.2E1,1E1,4E1,1.5E1,5.1E1,2.5E1,8E0,1.4E1,2.4E1,8E0,1E0,4.9E1,1.2E1,6.8E1],"tree_param":{"num_deleted":"0","num_feature":"9","num_nodes":"101","size_leaf_vector":"1"}},{"base_weights":[1.3502999E-4,-3.294845E-1,3.618281E-1,-5.0072134E-1,-1.4169762E-1,1.9829045E-1,5.4556704E-1,-6.111905E-1,-4.2457792E-1,-3.9470334E-2,-2.2518177E-1,9.46673E-2,2.9193372E-1,6.471036E-1,4.703124E-1,-4.7858077E-1,-6.6324115E-1,-3.5521796E-1,-5.285243E-1,-9.75089E-2,7.518815E-2,-2.902214E-1,-1.2556922E-1,1.7839558E-1,1.4620554E-2,3.4689325E-1,1.5472293E-1,5.520252E-1,3.7520636E-2,3.963351E-1,5.4823726E-1,-2.5696337E-2,-1.6633054E-2,-2.7338972E-2,-3.525416E-2,-4.3229997E-1,-3.038811E-1,-2.2322217E-2,-2.8410597E-2,-4.1930437E-2,-1.7487104E-1,2.0778912E-1,3.6434673E-2,-2.2827622E-1,-3.525149E-1,-6.7005485E-2,-1.886532E-1,2.2846E-1,1.4250301E-1,8.702592E-2,-1.5493098E-2,2.773746E-1,3.9294717E-1,7.7632E-2,2.0005463E-1,2.3140093E-2,6.081989E-1,2.8556675E-1,4.264965E-1,2.0050172E-2,5.8083445E-1,-2.4072535E-2,-1.623356E-2,-1.267939E-2,-1.7646324E-2,1.0210085E-3,-4.041182E-3,-1.01627065E-2,-4.577667E-3,2.2244155E-3,1.0929513E-2,-3.9459285E-4,4.9218866E-3,-9.183136E-3,-1.4258658E-2,-1.838936E-2,-9.653391E-3,-6.627714E-3,-1.2840037E-3,-1.0532396E-2,-4.8409957E-3,1.3659934E-2,7.411451E-3,4.586057E-3,9.790545E-3,1.237751E-3,6.931638E-3,1.9731701E-4,-5.387369E-3,1.5713725E-2,9.7620515E-3,2.2671672E-2,1.723457E-2,6.906701E-3,7.851243E-4,1.1539188E-2,5.7411226E-3,3.080835E-2,7.2368444E-3,1.5686808E-2,9.50055E-3,2.1559604E-2,1.97562E-3,3.006506E-2,1.7480634E-2],"categories":[],"categories_nodes":[],"categories_segments":[],"categories_sizes":[],"default_left":[0,0,0,0,0,0,0,0,0,0,0,0,0,0,0,0,0,0,0,0,0,0,0,0,0,0,0,0,0,0,0,0,0,0,0,0,0,0,0,0,0,0,0,0,0,0,0,0,0,0,0,0,0,0,0,0,0,0,0,0,0,0,0,0,0,0,0,0,0,0,0,0,0,0,0,0,0,0,0,0,0,0,0,0,0,0,0,0,0,0,0,0,0,0,0,0,0,0,0,0,0,0,0,0,0],"id":7,"left_children":[1,3,5,7,9,11,13,15,17,19,21,23,25,27,29,31,33,35,37,39,41,43,45,47,49,51,53,55,-1,57,59,-1,-1,-1,-1,61,63,-1,-1,65,67,69,71,73,75,77,79,81,83,85,87,89,91,93,95,-1,97,99,101,-1,103,-1,-1,-1,-1,-1,-1,-1,-1,-1,-1,-1,-1,-1,-1,-1,-1,-1,-1,-1,-1,-1,-1,-1,-1,-1,-1,-1,-1,-1,-1,-1,-1,-1,-1,-1,-1,-1,-1,-1,-1,-1,-1,-1,-1],"loss_changes":[1.6702873E2,2.349942E1,1.996405E1,2.9621124E0,2.9866714E0,3.4171457E0,2.0949554E0,7.455559E-1,1.4704895E0,1.0654153E0,1.2139578E0,1.1367618E0,1.3489609E0,8.7249374E-1,8.434143E-1,7.144642E-2,1.4075851E-1,4.2659187E-1,3.9505005E-2,4.4843245E-1,2.6992172E-1,3.671484E-1,2.7552497E-1,1.16589785E-1,1.9322261E-1,3.136196E-1,1.766758E-1,7.938957E-2,0E0,2.0561695E-1,1.8463135E-1,0E0,0E0,0E0,0E0,1.2934875E-1,1.2756729E-1,0E0,0E0,1.5442637E-1,8.544338E-2,1.144129E-2,1.18957214E-1,1.0246515E-1,6.535864E-2,1.10366896E-1,5.4339528E-2,7.795513E-2,1.20100856E-1,8.012186E-2,1.1340762E-1,1.08361244E-1,6.845379E-2,8.02619E-2,6.2550545E-2,0E0,6.2228203E-2,4.988432E-3,1.1924553E-1,0E0,1.1631203E-1,0E0,0E0,0E0,0E0,0E0,0E0,0E0,0E0,0E0,0E0,0E0,0E0,0E0,0E0,0E0,0E0,0E0,0E0,0E0,0E0,0E0,0E0,0E0,0E0,0E0,0E0,0E0,0E0,0E0,0E0,0E0,0E0,0E0,0E0,0E0,0E0,0E0,0E0,0E0,0E0,0E0,0E0,0E0,0E0],"parents":[2147483647,0,0,1,1,2,2,3,3,4,4,5,5,6,6,7,7,8,8,9,9,10,10,11,11,12,12,13,13,14,14,15,15,16,16,17,17,18,18,19,19,20,20,21,21,22,22,23,23,24,24,25,25,26,26,27,27,29,29,30,30,35,35,36,36,39,39,40,40,41,41,42,42,43,43,44,44,45,45,46,46,47,47,48,48,49,49,50,50,51,51,52,52,53,53,54,54,56,56,57,57,58,58,60,60],"right_children":[2,4,6,8,10,12,14,16,18,20,22,24,26,28,30,32,34,36,38,40,42,44,46,48,50,52,54,56,-1,58,60,-1,-1,-1,-1,62,64,-1,-1,66,68,70,72,74,76,78,80,82,84,86,88,90,92,94,96,-1,98,100,102,-1,104,-1,-1,-1,-1,-1,-1,-1,-1,-1,-1,-1,-1,-1,-1,-1,-1,-1,-1,-1,-1,-1,-1,-1,-1,-1,-1,-1,-1,-1,-1,-1,-1,-1,-1,-1,-1,-1,-1,-1,-1,-1,-1,-1,-1],"split_conditions":[2.6164322E0,1.4012654E0,3.8761566E0,5.895459E-1,2.5026968E2,3.2090967E0,2.1038356E2,1.3970724E2,3.2472168E2,2.2341266E0,2.1206164E0,2.7513232E2,3.6678745E2,4.5048313E0,4.4707856E0,3.949056E1,4.6715627E0,3.0892994E1,5.4971247E0,9.915787E0,6.863454E1,7.889431E0,3.9371582E2,1.4796564E2,5.639E0,3.0501417E1,3.4856322E0,2.9352013E1,3.7520636E-2,2.6516964E1,2.460272E1,-2.5696337E-2,-1.6633054E-2,-2.7338972E-2,-3.525416E-2,1.0732709E0,7.2621884E0,-2.2322217E-2,-2.8410597E-2,9.8785774E1,2.0575445E0,2.0791853E1,3.7196434E1,4.1109274E2,2.0440297E0,2.8928354E1,3.833745E1,1.0406276E1,3.299002E1,2.7483103E1,1.29531765E1,1.0827995E1,1.2864381E2,6.7440424E0,9.527276E0,2.3140093E-2,1.4564613E1,1.1199344E1,4.9259464E2,2.0050172E-2,1.3163852E1,-2.4072535E-2,-1.623356E-2,-1.267939E-2,-1.7646324E-2,1.0210085E-3,-4.041182E-3,-1.01627065E-2,-4.577667E-3,2.2244155E-3,1.0929513E-2,-3.9459285E-4,4.9218866E-3,-9.183136E-3,-1.4258658E-2,-1.838936E-2,-9.653391E-3,-6.627714E-3,-1.2840037E-3,-1.0532396E-2,-4.8409957E-3,1.3659934E-2,7.411451E-3,4.586057E-3,9.790545E-3,1.237751E-3,6.931638E-3,1.9731701E-4,-5.387369E-3,1.5713725E-2,9.7620515E-3,2.2671672E-2,1.723457E-2,6.906701E-3,7.851243E-4,1.1539188E-2,5.7411226E-3,3.080835E-2,7.2368444E-3,1.5686808E-2,9.50055E-3,2.1559604E-2,1.97562E-3,3.006506E-2,1.7480634E-2],"split_indices":[1,1,1,1,6,1,6,6,6,1,1,6,6,1,1,2,5,2,5,5,6,5,6,6,5,2,1,2,0,2,2,0,0,0,0,1,5,0,0,6,1,2,2,6,1,2,2,5,2,2,5,5,6,5,5,0,5,5,6,0,5,0,0,0,0,0,0,0,0,0,0,0,0,0,0,0,0,0,0,0,0,0,0,0,0,0,0,0,0,0,0,0,0,0,0,0,0,0,0,0,0,0,0,0,0],"split_type":[0,0,0,0,0,0,0,0,0,0,0,0,0,0,0,0,0,0,0,0,0,0,0,0,0,0,0,0,0,0,0,0,0,0,0,0,0,0,0,0,0,0,0,0,0,0,0,0,0,0,0,0,0,0,0,0,0,0,0,0,0,0,0,0,0,0,0,0,0,0,0,0,0,0,0,0,0,0,0,0,0,0,0,0,0,0,0,0,0,0,0,0,0,0,0,0,0,0,0,0,0,0,0,0,0],"sum_hessian":[1.399E3,7.32E2,6.67E2,3.82E2,3.5E2,3.54E2,3.13E2,1.53E2,2.29E2,1.58E2,1.92E2,1.69E2,1.85E2,1.3E2,1.83E2,4.6E1,1.07E2,1.4E2,8.9E1,1.05E2,5.3E1,1.15E2,7.7E1,8.2E1,8.7E1,1.31E2,5.4E1,7.1E1,5.9E1,9.7E1,8.6E1,3.5E1,1.1E1,3.2E1,7.5E1,5.3E1,8.7E1,3.3E1,5.6E1,6.2E1,4.3E1,1.1E1,4.2E1,6E1,5.5E1,4.1E1,3.6E1,3.2E1,5E1,2.5E1,6.2E1,5.5E1,7.6E1,2.1E1,3.3E1,3.1E1,4E1,2.3E1,7.4E1,1.8E1,6.8E1,3.4E1,1.9E1,4.6E1,4.1E1,2.4E1,3.8E1,3.1E1,1.2E1,1E0,1E1,2.5E1,1.7E1,3.6E1,2.4E1,4.9E1,6E0,1.5E1,2.6E1,2.8E1,8E0,1.9E1,1.3E1,2.7E1,2.3E1,1.2E1,1.3E1,5.2E1,1E1,3.6E1,1.9E1,3E1,4.6E1,1E1,1.1E1,2.3E1,1E1,3.9E1,1E0,1.6E1,7E0,7.3E1,1E0,6.1E1,7E0],"tree_param":{"num_deleted":"0","num_feature":"9","num_nodes":"105","size_leaf_vector":"1"}},{"base_weights":[1.5874923E-4,-3.2861236E-1,3.2846063E-1,-5.076311E-1,-1.791174E-1,1.3233498E-1,4.8006094E-1,-4.332904E-1,-5.880041E-1,-2.9029292E-1,-1.12406954E-1,2.4888328E-1,6.1231133E-2,3.7913316E-1,5.7269853E-1,-5.1783526E-1,-3.603255E-1,-6.844096E-1,-5.2827317E-1,-2.1868023E-1,-3.8297424E-1,-2.3957804E-2,-1.890143E-1,1.9531657E-1,3.3209887E-1,6.3128313E-3,1.4871825E-1,4.3709454E-1,2.9940787E-1,6.5407E-1,4.644673E-1,-1.9895775E-2,-5.535581E-1,-4.0293485E-1,-2.6935259E-1,-3.6649223E-2,-2.616164E-2,-1.8853482E-2,-2.7161432E-2,-1.3785572E-1,-2.618289E-1,-3.0831298E-1,-2.1481398E-2,1.1660507E-2,-1.1855012E-1,-1.3236406E-1,-2.480982E-1,2.5533602E-1,1.7103136E-1,2.0545132E-2,1.2465406E-2,8.039964E-2,-3.3661E-2,9.790536E-2,2.5049907E-1,3.8340273E-1,2.5839651E-2,3.2488775E-1,1.8793231E-1,3.806822E-2,5.9262514E-1,5.113097E-1,3.6212316E-1,-2.2614965E-2,-3.028878E-2,-1.1290292E-2,-2.0725548E-2,-1.0129827E-2,-1.5686363E-2,-3.8587213E-3,-8.605948E-3,-7.0078224E-3,-1.386487E-2,-1.5695555E-2,-4.0690484E-3,-1.477111E-3,4.2718365E-3,-8.790334E-3,-2.6942098E-3,-8.815365E-3,-2.9552781E-3,-1.5370987E-2,-9.6776225E-3,1.4717178E-2,7.3208436E-3,6.60955E-3,1.0188173E-2,5.286662E-4,5.746759E-3,1.6521553E-4,-5.3859353E-3,6.354328E-3,1.8673076E-3,1.3613537E-2,5.665624E-3,2.095897E-2,1.6146025E-2,1.6476572E-2,4.6016576E-4,1.1350955E-2,5.5348235E-3,3.0081779E-2,1.38887735E-2,1.8514806E-2,2.6770437E-2,2.3396341E-2,1.5018853E-2],"categories":[],"categories_nodes":[],"categories_segments":[],"categories_sizes":[],"default_left":[0,0,0,0,0,0,0,0,0,0,0,0,0,0,0,0,0,0,0,0,0,0,0,0,0,0,0,0,0,0,0,0,0,0,0,0,0,0,0,0,0,0,0,0,0,0,0,0,0,0,0,0,0,0,0,0,0,0,0,0,0,0,0,0,0,0,0,0,0,0,0,0,0,0,0,0,0,0,0,0,0,0,0,0,0,0,0,0,0,0,0,0,0,0,0,0,0,0,0,0,0,0,0,0,0,0,0],"id":8,"left_children":[1,3,5,7,9,11,13,15,17,19,21,23,25,27,29,31,33,35,37,39,41,43,45,47,49,51,53,55,57,59,61,-1,63,65,67,-1,-1,-1,-1,69,71,73,-1,75,77,79,81,83,85,-1,-1,87,89,91,93,95,-1,97,99,-1,101,103,105,-1,-1,-1,-1,-1,-1,-1,-1,-1,-1,-1,-1,-1,-1,-1,-1,-1,-1,-1,-1,-1,-1,-1,-1,-1,-1,-1,-1,-1,-1,-1,-1,-1,-1,-1,-1,-1,-1,-1,-1,-1,-1,-1,-1],"loss_changes":[1.512186E2,1.8642754E1,2.0779106E1,1.6452713E0,2.8079147E0,2.5288796E0,3.4760056E0,8.5593605E-1,5.022049E-1,8.653641E-1,1.6284528E0,4.5221567E-1,9.2155284E-1,7.563591E-1,1.4928207E0,1.0530472E-1,2.558403E-1,3.9251328E-2,1.4513016E-2,2.5336552E-1,8.001709E-2,3.8210407E-1,3.9893866E-1,6.2732935E-2,1.8462467E-1,3.5512882E-1,3.5818636E-1,2.6828766E-1,1.7753506E-1,3.0036545E-1,2.5109863E-1,0E0,2.2108078E-2,3.3530235E-2,3.4195423E-2,0E0,0E0,0E0,0E0,5.117005E-2,6.0885668E-2,8.754492E-3,0E0,2.548259E-1,1.0530576E-1,2.0848584E-1,1.4111376E-1,3.7627935E-2,4.2987347E-2,0E0,0E0,1.0006729E-1,2.1388608E-1,8.5380524E-2,4.083109E-2,1.3944626E-2,0E0,9.5184326E-2,2.9209971E-2,0E0,5.132675E-2,5.6390762E-3,6.850004E-2,0E0,0E0,0E0,0E0,0E0,0E0,0E0,0E0,0E0,0E0,0E0,0E0,0E0,0E0,0E0,0E0,0E0,0E0,0E0,0E0,0E0,0E0,0E0,0E0,0E0,0E0,0E0,0E0,0E0,0E0,0E0,0E0,0E0,0E0,0E0,0E0,0E0,0E0,0E0,0E0,0E0,0E0,0E0,0E0],"parents":[2147483647,0,0,1,1,2,2,3,3,4,4,5,5,6,6,7,7,8,8,9,9,10,10,11,11,12,12,13,13,14,14,15,15,16,16,17,17,18,18,19,19,20,20,21,21,22,22,23,23,24,24,25,25,26,26,27,27,28,28,29,29,30,30,32,32,33,33,34,34,39,39,40,40,41,41,43,43,44,44,45,45,46,46,47,47,48,48,51,51,52,52,53,53,54,54,55,55,57,57,58,58,60,60,61,61,62,62],"right_children":[2,4,6,8,10,12,14,16,18,20,22,24,26,28,30,32,34,36,38,40,42,44,46,48,50,52,54,56,58,60,62,-1,64,66,68,-1,-1,-1,-1,70,72,74,-1,76,78,80,82,84,86,-1,-1,88,90,92,94,96,-1,98,100,-1,102,104,106,-1,-1,-1,-1,-1,-1,-1,-1,-1,-1,-1,-1,-1,-1,-1,-1,-1,-1,-1,-1,-1,-1,-1,-1,-1,-1,-1,-1,-1,-1,-1,-1,-1,-1,-1,-1,-1,-1,-1,-1,-1,-1,-1,-1],"split_conditions":[2.5086384E0,1.1654555E0,3.5767796E0,2.6397043E2,1.6651564E0,2.191162E2,4.258685E0,5.437927E-1,4.5258075E-1,3.1141013E2,2.5636664E2,3.2433414E0,3.1174355E0,2.8536145E2,2.697275E2,8.511256E1,3.6167507E1,3.9357704E1,1.6881193E0,1.3970724E2,6.2340837E0,1.1487468E1,7.889431E0,6.506355E1,8.948037E0,6.5059342E0,3.728541E1,3.599227E1,1.0173886E1,4.5206585E0,4.2248642E2,-1.9895775E-2,6.187772E0,1.9556162E0,5.4971247E0,-3.6649223E-2,-2.616164E-2,-1.8853482E-2,-2.7161432E-2,6.1201572E0,2.8842473E0,4.148837E1,-2.1481398E-2,3.7196434E1,3.242807E1,2.2017944E0,2.0440297E0,1.0406276E1,2.9168603E0,2.0545132E-2,1.2465406E-2,2.7305143E0,4.026252E2,9.527276E0,3.998621E2,1.0218105E1,2.5839651E-2,4.9413617E2,4.0774356E2,3.806822E-2,3.7774414E1,2.460272E1,5.6833243E0,-2.2614965E-2,-3.028878E-2,-1.1290292E-2,-2.0725548E-2,-1.0129827E-2,-1.5686363E-2,-3.8587213E-3,-8.605948E-3,-7.0078224E-3,-1.386487E-2,-1.5695555E-2,-4.0690484E-3,-1.477111E-3,4.2718365E-3,-8.790334E-3,-2.6942098E-3,-8.815365E-3,-2.9552781E-3,-1.5370987E-2,-9.6776225E-3,1.4717178E-2,7.3208436E-3,6.60955E-3,1.0188173E-2,5.286662E-4,5.746759E-3,1.6521553E-4,-5.3859353E-3,6.354328E-3,1.8673076E-3,1.3613537E-2,5.665624E-3,2.095897E-2,1.6146025E-2,1.6476572E-2,4.6016576E-4,1.1350955E-2,5.5348235E-3,3.0081779E-2,1.38887735E-2,1.8514806E-2,2.6770437E-2,2.3396341E-2,1.5018853E-2],"split_indices":[1,1,1,6,1,6,1,1,1,6,6,1,1,6,6,6,2,2,5,6,5,5,5,6,5,5,2,2,5,5,6,0,5,5,5,0,0,0,0,5,5,2,0,2,2,1,1,5,1,0,0,1,6,5,6,5,0,6,6,0,7,2,5,0,0,0,0,0,0,0,0,0,0,0,0,0,0,0,0,0,0,0,0,0,0,0,0,0,0,0,0,0,0,0,0,0,0,0,0,0,0,0,0,0,0,0,0],"split_type":[0,0,0,0,0,0,0,0,0,0,0,0,0,0,0,0,0,0,0,0,0,0,0,0,0,0,0,0,0,0,0,0,0,0,0,0,0,0,0,0,0,0,0,0,0,0,0,0,0,0,0,0,0,0,0,0,0,0,0,0,0,0,0,0,0,0,0,0,0,0,0,0,0,0,0,0,0,0,0,0,0,0,0,0,0,0,0,0,0,0,0,0,0,0,0,0,0,0,0,0,0,0,0,0,0,0,0],"sum_hessian":[1.399E3,6.99E2,7E2,3.17E2,3.82E2,3.06E2,3.94E2,1.68E2,1.49E2,1.42E2,2.4E2,1.15E2,1.91E2,1.91E2,2.03E2,7.5E1,9.3E1,5.3E1,9.6E1,8.2E1,6E1,1.12E2,1.28E2,7.2E1,4.3E1,1.18E2,7.3E1,1.08E2,8.3E1,1.13E2,9E1,2E1,5.5E1,6.1E1,3.2E1,3.8E1,1.5E1,1.1E1,8.5E1,3E1,5.2E1,2.6E1,3.4E1,8.2E1,3E1,6.7E1,6.1E1,1.8E1,5.4E1,2E1,2.3E1,4.1E1,7.7E1,5E1,2.3E1,6.8E1,4E1,6.6E1,1.7E1,3.7E1,7.6E1,5.9E1,3.1E1,2.2E1,3.3E1,5E0,5.6E1,1.5E1,1.7E1,1.2E1,1.8E1,7E0,4.5E1,2.5E1,1E0,5.3E1,2.9E1,1.5E1,1.5E1,4.1E1,2.6E1,2.7E1,3.4E1,1.2E1,6E0,2.7E1,2.7E1,1.4E1,2.7E1,5.2E1,2.5E1,3.3E1,1.7E1,1.9E1,4E0,3.9E1,2.9E1,6.5E1,1E0,1E1,7E0,7.3E1,3E0,1.1E1,4.8E1,9E0,2.2E1],"tree_param":{"num_deleted":"0","num_feature":"9","num_nodes":"107","size_leaf_vector":"1"}},{"base_weights":[1.5320224E-4,-2.9831147E-1,3.2765988E-1,-4.5339352E-1,-1.2824102E-1,1.7935641E-1,4.9428433E-1,-5.6674E-1,-3.922224E-1,-3.5356797E-2,-2.0409776E-1,8.5958146E-2,2.6375613E-1,4.3557206E-1,6.053841E-1,-4.704148E-1,-6.273957E-1,-3.0498078E-1,-4.565885E-1,-1.2789783E-1,2.6705526E-2,-2.6288286E-1,-1.1405712E-1,1.6246651E-1,1.2820049E-2,3.1362143E-1,1.3928388E-1,5.2128136E-1,3.761276E-1,5.0257516E-1,6.8494666E-1,-2.642608E-2,-1.8666921E-2,-3.3944752E-2,-2.6118351E-2,-3.5446727E-1,-2.3110597E-1,-4.9948665E-1,-3.668082E-1,-3.3653546E-2,-1.66942E-1,-2.4876405E-2,1.0963013E-1,-2.0688812E-1,-3.1918278E-1,-4.3326102E-2,-1.5978767E-1,1.2253968E-1,2.0232436E-1,2.872644E-2,-1.01136185E-1,2.4979752E-1,3.559658E-1,6.9228336E-2,1.8388975E-1,3.123699E-2,4.686078E-1,2.2229267E-2,3.3176166E-1,2.5954247E-2,1.2508504E-2,3.7825923E-2,2.8870163E-2,-1.9047754E-2,-1.2559712E-2,-9.459097E-3,-1.5820695E-2,-1.891969E-2,-2.6159385E-2,-1.42164575E-2,-2.04094E-2,4.4938625E-4,-4.3384647E-3,-6.170045E-3,-9.841942E-3,1.1263549E-3,-5.1056826E-3,8.106071E-3,3.0958345E-3,-1.3824835E-2,-8.565975E-3,-1.2799348E-2,-1.8270979E-2,2.827112E-4,-4.086802E-3,-5.154785E-3,-1.0723105E-2,1.2384582E-3,7.3486487E-3,6.3298056E-3,1.1167362E-2,-7.69593E-4,3.2497316E-3,-6.1379136E-3,-1.6303987E-3,1.3913316E-2,8.061696E-3,2.0619268E-2,1.5558958E-2,6.3207536E-3,1.5150539E-3,1.0851257E-2,3.5707408E-3,2.0770542E-2,2.7254373E-2,1.9606194E-2,1.4428288E-2],"categories":[],"categories_nodes":[],"categories_segments":[],"categories_sizes":[],"default_left":[0,0,0,0,0,0,0,0,0,0,0,0,0,0,0,0,0,0,0,0,0,0,0,0,0,0,0,0,0,0,0,0,0,0,0,0,0,0,0,0,0,0,0,0,0,0,0,0,0,0,0,0,0,0,0,0,0,0,0,0,0,0,0,0,0,0,0,0,0,0,0,0,0,0,0,0,0,0,0,0,0,0,0,0,0,0,0,0,0,0,0,0,0,0,0,0,0,0,0,0,0,0,0,0,0,0,0],"id":9,"left_children":[1,3,5,7,9,11,13,15,17,19,21,23,25,27,29,31,33,35,37,39,41,43,45,47,49,51,53,55,57,59,61,-1,-1,-1,-1,63,65,67,69,71,73,75,77,79,81,83,85,87,89,91,93,95,97,99,101,-1,103,-1,105,-1,-1,-1,-1,-1,-1,-1,-1,-1,-1,-1,-1,-1,-1,-1,-1,-1,-1,-1,-1,-1,-1,-1,-1,-1,-1,-1,-1,-1,-1,-1,-1,-1,-1,-1,-1,-1,-1,-1,-1,-1,-1,-1,-1,-1,-1,-1,-1],"loss_changes":[1.369466E2,1.9274635E1,1.6418282E1,2.433258E0,2.4658923E0,2.7757177E0,1.7845154E0,4.760971E-1,1.2758293E0,9.16602E-1,9.9157524E-1,9.4918215E-1,1.1107912E0,8.687782E-1,5.228195E-1,1.1292648E-1,6.726265E-2,3.2021904E-1,3.6753654E-1,2.29882E-1,4.1335866E-1,2.9965496E-1,2.4537337E-1,1.0729337E-1,1.6241693E-1,2.6782036E-1,1.5913844E-1,1.5955162E-1,2.3822594E-1,7.849693E-2,1.9187927E-3,0E0,0E0,0E0,0E0,7.937622E-2,1.0823345E-1,7.1811676E-2,5.4588795E-2,4.607832E-2,3.4288287E-2,2.2197928E-1,8.262995E-2,1.0365939E-1,7.008839E-2,6.0664747E-2,1.2357104E-1,1.0146934E-1,3.5405993E-2,1.258075E-1,1.2296051E-2,9.632683E-2,6.6241264E-2,4.73703E-2,1.0748887E-1,0E0,1.3605118E-2,0E0,9.80463E-2,0E0,0E0,0E0,0E0,0E0,0E0,0E0,0E0,0E0,0E0,0E0,0E0,0E0,0E0,0E0,0E0,0E0,0E0,0E0,0E0,0E0,0E0,0E0,0E0,0E0,0E0,0E0,0E0,0E0,0E0,0E0,0E0,0E0,0E0,0E0,0E0,0E0,0E0,0E0,0E0,0E0,0E0,0E0,0E0,0E0,0E0,0E0,0E0],"parents":[2147483647,0,0,1,1,2,2,3,3,4,4,5,5,6,6,7,7,8,8,9,9,10,10,11,11,12,12,13,13,14,14,15,15,16,16,17,17,18,18,19,19,20,20,21,21,22,22,23,23,24,24,25,25,26,26,27,27,28,28,29,29,30,30,35,35,36,36,37,37,38,38,39,39,40,40,41,41,42,42,43,43,44,44,45,45,46,46,47,47,48,48,49,49,50,50,51,51,52,52,53,53,54,54,56,56,58,58],"right_children":[2,4,6,8,10,12,14,16,18,20,22,24,26,28,30,32,34,36,38,40,42,44,46,48,50,52,54,56,58,60,62,-1,-1,-1,-1,64,66,68,70,72,74,76,78,80,82,84,86,88,90,92,94,96,98,100,102,-1,104,-1,106,-1,-1,-1,-1,-1,-1,-1,-1,-1,-1,-1,-1,-1,-1,-1,-1,-1,-1,-1,-1,-1,-1,-1,-1,-1,-1,-1,-1,-1,-1,-1,-1,-1,-1,-1,-1,-1,-1,-1,-1,-1,-1,-1,-1,-1,-1,-1,-1],"split_conditions":[2.6164322E0,1.4012654E0,3.8761566E0,5.2040184E-1,2.5026968E2,3.2090967E0,4.6283674E0,1.9216335E2,2.191162E2,1.8961766E0,2.1206164E0,2.7513232E2,3.6678745E2,2.0547665E2,2.964834E1,3.242807E1,3.515007E1,1.0021099E0,1.1116227E0,5.1035204E0,3.7196434E1,7.889431E0,3.6283234E2,2.9362621E0,1.29531765E1,3.0501417E1,2.8355686E1,5.899404E0,5.5396233E0,1.335841E1,7.685892E0,-2.642608E-2,-1.8666921E-2,-3.3944752E-2,-2.6118351E-2,3.8600685E1,9.760213E0,2.4745178E0,3.3159894E2,9.8785774E1,1.3970724E2,9.01763E0,6.1201572E0,2.7550379E1,3.6838434E2,2.1905346E1,9.847798E0,2.591751E1,2.5556623E1,3.175338E1,2.399886E1,2.2918748E2,1.2864381E2,1.40922785E1,1.0768696E1,3.123699E-2,3.4962574E1,2.2229267E-2,2.9954468E2,2.5954247E-2,1.2508504E-2,3.7825923E-2,2.8870163E-2,-1.9047754E-2,-1.2559712E-2,-9.459097E-3,-1.5820695E-2,-1.891969E-2,-2.6159385E-2,-1.42164575E-2,-2.04094E-2,4.4938625E-4,-4.3384647E-3,-6.170045E-3,-9.841942E-3,1.1263549E-3,-5.1056826E-3,8.106071E-3,3.0958345E-3,-1.3824835E-2,-8.565975E-3,-1.2799348E-2,-1.8270979E-2,2.827112E-4,-4.086802E-3,-5.154785E-3,-1.0723105E-2,1.2384582E-3,7.3486487E-3,6.3298056E-3,1.1167362E-2,-7.69593E-4,3.2497316E-3,-6.1379136E-3,-1.6303987E-3,1.3913316E-2,8.061696E-3,2.0619268E-2,1.5558958E-2,6.3207536E-3,1.5150539E-3,1.0851257E-2,3.5707408E-3,2.0770542E-2,2.7254373E-2,1.9606194E-2,1.4428288E-2],"split_indices":[1,1,1,1,6,1,1,6,6,1,1,6,6,6,2,2,2,1,1,5,2,5,6,1,5,2,2,5,5,5,5,0,0,0,0,2,5,5,6,6,6,5,5,2,6,4,5,2,2,2,4,6,6,0,5,0,2,0,6,0,0,0,0,0,0,0,0,0,0,0,0,0,0,0,0,0,0,0,0,0,0,0,0,0,0,0,0,0,0,0,0,0,0,0,0,0,0,0,0,0,0,0,0,0,0,0,0],"split_type":[0,0,0,0,0,0,0,0,0,0,0,0,0,0,0,0,0,0,0,0,0,0,0,0,0,0,0,0,0,0,0,0,0,0,0,0,0,0,0,0,0,0,0,0,0,0,0,0,0,0,0,0,0,0,0,0,0,0,0,0,0,0,0,0,0,0,0,0,0,0,0,0,0,0,0,0,0,0,0,0,0,0,0,0,0,0,0,0,0,0,0,0,0,0,0,0,0,0,0,0,0,0,0,0,0,0,0],"sum_hessian":[1.399E3,7.32E2,6.67E2,3.82E2,3.5E2,3.54E2,3.13E2,1.31E2,2.51E2,1.58E2,1.92E2,1.69E2,1.85E2,2.08E2,1.05E2,5.4E1,7.7E1,1.09E2,1.42E2,6.3E1,9.5E1,1.15E2,7.7E1,8.2E1,8.7E1,1.31E2,5.4E1,8.2E1,1.26E2,4.9E1,5.6E1,3.1E1,2.3E1,4.8E1,2.9E1,6.3E1,4.6E1,9.3E1,4.9E1,1.9E1,4.4E1,5.9E1,3.6E1,6E1,5.5E1,3.1E1,4.6E1,4.3E1,3.9E1,7.7E1,1E1,5.5E1,7.6E1,2.2E1,3.2E1,2.4E1,5.8E1,4.6E1,8E1,4.5E1,4E0,3E1,2.6E1,4.8E1,1.5E1,3.3E1,1.3E1,1.8E1,7.5E1,1.9E1,3E1,1.1E1,8E0,2E1,2.4E1,3.7E1,2.2E1,1.6E1,2E1,1.8E1,4.2E1,2.6E1,2.9E1,1.4E1,1.7E1,2.4E1,2.2E1,9E0,3.4E1,1E1,2.9E1,3.5E1,4.2E1,7E0,3E0,4E1,1.5E1,3E1,4.6E1,8E0,1.4E1,2.4E1,8E0,3.8E1,2E1,3E1,5E1],"tree_param":{"num_deleted":"0","num_feature":"9","num_nodes":"107","size_leaf_vector":"1"}},{"base_weights":[1.5578092E-4,-2.9759818E-1,2.9748476E-1,-4.4970766E-1,-1.5351279E-1,1.1963934E-1,4.3495578E-1,-3.8097277E-1,-5.264721E-1,-6.771597E-2,-2.1995702E-1,2.2547913E-1,5.5071346E-2,3.5465443E-1,5.3185433E-1,-4.6848738E-1,-3.158609E-1,-6.576841E-1,-4.8657063E-1,-1.4294057E-1,1.2234447E-2,-3.1704116E-1,-1.6759996E-1,1.8010241E-1,3.040926E-1,5.2064406E-3,1.345153E-1,4.3648142E-1,3.0346265E-1,5.6749886E-1,3.5260564E-1,-1.8554829E-2,-5.063005E-1,-3.5373816E-1,-2.3677808E-1,-3.3318352E-2,-9.278649E-3,-4.2099187E-1,-2.6099175E-2,-8.093305E-2,-2.0602512E-1,-2.9557027E-2,8.3866835E-2,-2.354806E-1,-1.7723767E-2,-8.468765E-2,-2.0324208E-1,2.3443711E-1,1.5651079E-1,1.89959E-2,2.2133802E-1,8.591937E-2,-2.6763864E-2,8.832307E-2,2.2706898E-1,1.7484842E-2,4.9066845E-1,3.5188204E-1,2.5419095E-1,3.306302E-2,5.148273E-1,2.2126194E-2,1.4580949E-2,-1.725238E-2,-2.6601339E-2,-1.8747259E-2,-1.2870249E-2,-8.746494E-3,-1.3925785E-2,-2.247841E-2,-1.5363763E-2,-9.382427E-4,-5.6783636E-3,-1.2480787E-2,-6.944009E-3,9.1434683E-4,-4.5640287E-3,6.5735676E-3,2.373561E-3,-2.7979016E-3,-1.2031456E-2,-6.2734857E-3,-5.287461E-4,-1.2902093E-2,-6.817523E-3,1.3618852E-2,7.6793195E-3,5.991751E-3,9.326247E-3,1.179943E-2,6.216419E-3,6.6120997E-3,1.2770653E-3,-4.101498E-3,7.3341635E-4,7.073986E-3,2.8791793E-3,1.3090277E-2,7.004261E-3,6.1330083E-3,2.4794431E-2,1.1600204E-2,1.8442152E-2,1.4026974E-2,6.2497105E-3,2.713797E-2,1.9683177E-2],"categories":[],"categories_nodes":[],"categories_segments":[],"categories_sizes":[],"default_left":[0,0,0,0,0,0,0,0,0,0,0,0,0,0,0,0,0,0,0,0,0,0,0,0,0,0,0,0,0,0,0,0,0,0,0,0,0,0,0,0,0,0,0,0,0,0,0,0,0,0,0,0,0,0,0,0,0,0,0,0,0,0,0,0,0,0,0,0,0,0,0,0,0,0,0,0,0,0,0,0,0,0,0,0,0,0,0,0,0,0,0,0,0,0,0,0,0,0,0,0,0,0,0,0,0,0,0],"id":10,"left_children":[1,3,5,7,9,11,13,15,17,19,21,23,25,27,29,31,33,35,37,39,41,43,45,47,49,51,53,55,57,59,61,-1,63,65,67,-1,-1,69,-1,71,73,75,77,79,-1,81,83,85,87,-1,89,91,93,95,97,-1,99,101,103,-1,105,-1,-1,-1,-1,-1,-1,-1,-1,-1,-1,-1,-1,-1,-1,-1,-1,-1,-1,-1,-1,-1,-1,-1,-1,-1,-1,-1,-1,-1,-1,-1,-1,-1,-1,-1,-1,-1,-1,-1,-1,-1,-1,-1,-1,-1,-1],"loss_changes":[1.2403175E2,1.5272694E1,1.7086426E1,1.593399E0,2.0430593E0,2.0855784E0,2.884903E0,8.948002E-1,5.0720596E-1,9.5801246E-1,9.787216E-1,3.5902977E-1,7.599009E-1,7.849045E-1,9.3079376E-1,9.199333E-2,2.3974991E-1,1.571846E-2,7.0539474E-2,3.040868E-1,2.3598145E-1,1.3024855E-1,3.7878108E-1,6.072831E-2,1.7318058E-1,3.0936915E-1,2.9631376E-1,2.1402931E-1,2.3978329E-1,3.8059616E-1,4.643345E-2,0E0,3.2143593E-2,4.8535347E-2,4.9372435E-2,0E0,0E0,2.10886E-2,0E0,8.510777E-2,8.240867E-2,1.4932418E-1,4.4004187E-2,9.641767E-3,0E0,1.2561694E-1,3.0572104E-1,2.2583485E-2,3.9292216E-2,0E0,1.9272566E-3,9.171593E-2,1.9812563E-1,7.5187474E-2,3.5841346E-2,0E0,3.138542E-2,5.065441E-2,2.1003294E-1,0E0,1.1800194E-1,0E0,0E0,0E0,0E0,0E0,0E0,0E0,0E0,0E0,0E0,0E0,0E0,0E0,0E0,0E0,0E0,0E0,0E0,0E0,0E0,0E0,0E0,0E0,0E0,0E0,0E0,0E0,0E0,0E0,0E0,0E0,0E0,0E0,0E0,0E0,0E0,0E0,0E0,0E0,0E0,0E0,0E0,0E0,0E0,0E0,0E0],"parents":[2147483647,0,0,1,1,2,2,3,3,4,4,5,5,6,6,7,7,8,8,9,9,10,10,11,11,12,12,13,13,14,14,15,15,16,16,17,17,18,18,19,19,20,20,21,21,22,22,23,23,24,24,25,25,26,26,27,27,28,28,29,29,30,30,32,32,33,33,34,34,37,37,39,39,40,40,41,41,42,42,43,43,45,45,46,46,47,47,48,48,50,50,51,51,52,52,53,53,54,54,56,56,57,57,58,58,60,60],"right_children":[2,4,6,8,10,12,14,16,18,20,22,24,26,28,30,32,34,36,38,40,42,44,46,48,50,52,54,56,58,60,62,-1,64,66,68,-1,-1,70,-1,72,74,76,78,80,-1,82,84,86,88,-1,90,92,94,96,98,-1,100,102,104,-1,106,-1,-1,-1,-1,-1,-1,-1,-1,-1,-1,-1,-1,-1,-1,-1,-1,-1,-1,-1,-1,-1,-1,-1,-1,-1,-1,-1,-1,-1,-1,-1,-1,-1,-1,-1,-1,-1,-1,-1,-1,-1,-1,-1,-1,-1,-1],"split_conditions":[2.5086384E0,1.2540462E0,3.5767796E0,2.658877E2,2.4027045E2,2.191162E2,4.364499E0,5.437927E-1,3.4308398E-1,1.8961766E0,1.6651564E0,3.2720942E0,3.1174355E0,1.8599077E2,4.012403E2,9.74054E1,3.6167507E1,2.6828259E1,5.6833243E0,8.610953E0,3.7196434E1,4.157756E0,4.6292114E0,6.506355E1,8.948037E0,5.3469653E0,3.728541E1,2.911971E1,7.018352E0,1.3970724E2,4.5704126E0,-1.8554829E-2,2.6032388E0,1.0732709E0,5.4971247E0,-3.3318352E-2,-9.278649E-3,9.7631705E-1,-2.6099175E-2,9.8785774E1,3.5617825E1,8.789045E0,6.5973105E0,1.1458467E1,-1.7723767E-2,2.1644216E0,3.3746487E1,1.0406276E1,2.9168603E0,1.89959E-2,2.76309E1,3.488452E2,2.75856E0,5.639E0,9.527276E0,1.7484842E-2,3.0243736E1,2.7126245E1,4.2036627E2,3.306302E-2,1.2228031E1,2.2126194E-2,1.4580949E-2,-1.725238E-2,-2.6601339E-2,-1.8747259E-2,-1.2870249E-2,-8.746494E-3,-1.3925785E-2,-2.247841E-2,-1.5363763E-2,-9.382427E-4,-5.6783636E-3,-1.2480787E-2,-6.944009E-3,9.1434683E-4,-4.5640287E-3,6.5735676E-3,2.373561E-3,-2.7979016E-3,-1.2031456E-2,-6.2734857E-3,-5.287461E-4,-1.2902093E-2,-6.817523E-3,1.3618852E-2,7.6793195E-3,5.991751E-3,9.326247E-3,1.179943E-2,6.216419E-3,6.6120997E-3,1.2770653E-3,-4.101498E-3,7.3341635E-4,7.073986E-3,2.8791793E-3,1.3090277E-2,7.004261E-3,6.1330083E-3,2.4794431E-2,1.1600204E-2,1.8442152E-2,1.4026974E-2,6.2497105E-3,2.713797E-2,1.9683177E-2],"split_indices":[1,1,1,6,6,6,1,1,1,1,1,1,1,6,6,6,2,4,5,5,2,5,5,6,5,5,2,2,5,6,5,0,5,1,5,0,0,1,0,6,2,5,5,7,0,1,2,5,1,0,0,6,1,5,5,0,8,2,6,0,5,0,0,0,0,0,0,0,0,0,0,0,0,0,0,0,0,0,0,0,0,0,0,0,0,0,0,0,0,0,0,0,0,0,0,0,0,0,0,0,0,0,0,0,0,0,0],"split_type":[0,0,0,0,0,0,0,0,0,0,0,0,0,0,0,0,0,0,0,0,0,0,0,0,0,0,0,0,0,0,0,0,0,0,0,0,0,0,0,0,0,0,0,0,0,0,0,0,0,0,0,0,0,0,0,0,0,0,0,0,0,0,0,0,0,0,0,0,0,0,0,0,0,0,0,0,0,0,0,0,0,0,0,0,0,0,0,0,0,0,0,0,0,0,0,0,0,0,0,0,0,0,0,0,0,0,0],"sum_hessian":[1.399E3,6.99E2,7E2,3.39E2,3.6E2,3.06E2,3.94E2,1.82E2,1.57E2,1.58E2,2.02E2,1.15E2,1.91E2,2.18E2,1.76E2,7.5E1,1.07E2,3.3E1,1.24E2,8.1E1,7.7E1,6.9E1,1.33E2,7.5E1,4E1,1.18E2,7.3E1,8.1E1,1.37E2,1.45E2,3.1E1,2.4E1,5.1E1,7E1,3.7E1,3.2E1,1E0,4.8E1,7.6E1,4.2E1,3.9E1,4.9E1,2.8E1,2.4E1,4.5E1,4.1E1,9.2E1,2E1,5.5E1,1.9E1,2.1E1,3.3E1,8.5E1,5E1,2.3E1,3.4E1,4.7E1,6.6E1,7.1E1,4.8E1,9.7E1,1E1,2.1E1,9E0,4.2E1,5.5E1,1.5E1,1.7E1,2E1,3.6E1,1.2E1,1.5E1,2.7E1,2.2E1,1.7E1,2.8E1,2.1E1,1.1E1,1.7E1,1E0,2.3E1,2.6E1,1.5E1,4.9E1,4.3E1,1.2E1,8E0,2.7E1,2.8E1,1.7E1,4E0,1.8E1,1.5E1,3.6E1,4.9E1,1.7E1,3.3E1,1.5E1,8E0,1E0,4.6E1,1E1,5.6E1,5.8E1,1.3E1,7.6E1,2.1E1],"tree_param":{"num_deleted":"0","num_feature":"9","num_nodes":"107","size_leaf_vector":"1"}},{"base_weights":[1.626254E-4,-2.681797E-1,2.9886016E-1,-4.1058043E-1,-1.14225626E-1,1.6421591E-1,4.4798958E-1,-5.0183094E-1,-3.476971E-1,-4.556711E-2,-1.9900651E-1,2.5745186E-1,9.462991E-2,4.114878E-1,6.053488E-1,-4.5588368E-1,-3.1069173E-2,-2.902807E-1,-4.337862E-1,-1.309141E-1,1.0999392E-2,-2.524423E-1,-1.01602085E-1,1.7917997E-1,3.158863E-1,4.5083653E-2,2.0075959E-1,4.6228725E-1,3.224053E-1,2.5286257E-2,3.5631906E-2,-3.932493E-1,-5.148512E-1,-3.5771328E-1,-2.45603E-1,-3.6456597E-1,-2.337326E-2,-6.859625E-2,-1.7412917E-1,5.40168E-2,-5.0305314E-2,-2.9111922E-1,-1.8521509E-1,-5.127862E-2,-1.615664E-1,1.1103366E-1,1.9380012E-1,3.647812E-1,2.4391758E-1,1.0766831E-1,7.589497E-3,1.4428871E-2,1.6012268E-1,5.244077E-1,4.080569E-1,3.818523E-1,2.636175E-1,-1.5238675E-2,-2.119555E-2,-2.6371976E-2,-1.4048121E-2,-1.9884415E-2,-1.3493567E-2,-1.0556995E-2,-1.5107984E-2,-1.9170005E-2,-1.0638666E-2,-1.5750102E-5,-5.5425297E-3,-6.3820104E-3,-1.07534295E-2,-1.0534494E-4,5.757728E-3,-5.8430205E-3,-6.2390673E-4,-1.0756977E-2,-1.5836513E-2,-1.1444663E-2,-6.2446105E-3,-6.7680766E-4,-4.7833584E-3,-9.79211E-3,-2.9982806E-3,6.5691876E-3,1.3656259E-3,1.1557752E-2,8.103117E-3,1.0964634E-2,1.9213606E-2,1.2601783E-2,5.6967377E-3,2.2656017E-3,6.8330513E-3,-6.8963703E-4,6.079755E-3,5.5374983E-3,1.0038321E-2,2.9366527E-2,2.2969307E-2,1.722101E-2,2.199866E-2,1.5420298E-2,2.1324387E-2,1.356708E-2,5.1546395E-3],"categories":[],"categories_nodes":[],"categories_segments":[],"categories_sizes":[],"default_left":[0,0,0,0,0,0,0,0,0,0,0,0,0,0,0,0,0,0,0,0,0,0,0,0,0,0,0,0,0,0,0,0,0,0,0,0,0,0,0,0,0,0,0,0,0,0,0,0,0,0,0,0,0,0,0,0,0,0,0,0,0,0,0,0,0,0,0,0,0,0,0,0,0,0,0,0,0,0,0,0,0,0,0,0,0,0,0,0,0,0,0,0,0,0,0,0,0,0,0,0,0,0,0,0,0],"id":11,"left_children":[1,3,5,7,9,11,13,15,17,19,21,23,25,27,29,31,-1,33,35,37,39,41,43,45,47,49,51,53,55,-1,-1,57,59,61,63,65,-1,67,69,71,73,75,77,79,81,83,85,87,89,91,93,-1,95,97,99,101,103,-1,-1,-1,-1,-1,-1,-1,-1,-1,-1,-1,-1,-1,-1,-1,-1,-1,-1,-1,-1,-1,-1,-1,-1,-1,-1,-1,-1,-1,-1,-1,-1,-1,-1,-1,-1,-1,-1,-1,-1,-1,-1,-1,-1,-1,-1,-1,-1],"loss_changes":[1.12294624E2,1.6132397E1,1.3239086E1,2.0232239E0,2.0631824E0,2.2464085E0,1.554493E0,5.626564E-1,1.0109539E0,9.573407E-1,8.0192804E-1,6.248913E-1,1.0531313E0,1.0184937E0,2.4884987E-1,2.2227669E-1,0E0,3.3694077E-1,3.939247E-2,2.0080793E-1,3.191777E-1,2.1129465E-1,1.667366E-1,4.423809E-2,2.0661163E-1,3.2535458E-1,1.8218541E-1,3.317604E-1,2.3832798E-1,0E0,0E0,3.3572197E-2,1.6688347E-2,8.229494E-2,1.0772467E-1,1.5624523E-2,0E0,9.8061204E-2,6.0097337E-2,2.4386327E-1,1.2442137E-1,5.4451466E-2,7.680476E-2,5.399105E-2,7.8799784E-2,2.0263836E-2,2.5373101E-2,5.1845074E-2,1.0326862E-2,8.781725E-2,2.1619427E-1,0E0,7.007301E-2,2.4765015E-2,3.328991E-2,1.9270897E-2,3.6501884E-2,0E0,0E0,0E0,0E0,0E0,0E0,0E0,0E0,0E0,0E0,0E0,0E0,0E0,0E0,0E0,0E0,0E0,0E0,0E0,0E0,0E0,0E0,0E0,0E0,0E0,0E0,0E0,0E0,0E0,0E0,0E0,0E0,0E0,0E0,0E0,0E0,0E0,0E0,0E0,0E0,0E0,0E0,0E0,0E0,0E0,0E0,0E0,0E0],"parents":[2147483647,0,0,1,1,2,2,3,3,4,4,5,5,6,6,7,7,8,8,9,9,10,10,11,11,12,12,13,13,14,14,15,15,17,17,18,18,19,19,20,20,21,21,22,22,23,23,24,24,25,25,26,26,27,27,28,28,31,31,32,32,33,33,34,34,35,35,37,37,38,38,39,39,40,40,41,41,42,42,43,43,44,44,45,45,46,46,47,47,48,48,49,49,50,50,52,52,53,53,54,54,55,55,56,56],"right_children":[2,4,6,8,10,12,14,16,18,20,22,24,26,28,30,32,-1,34,36,38,40,42,44,46,48,50,52,54,56,-1,-1,58,60,62,64,66,-1,68,70,72,74,76,78,80,82,84,86,88,90,92,94,-1,96,98,100,102,104,-1,-1,-1,-1,-1,-1,-1,-1,-1,-1,-1,-1,-1,-1,-1,-1,-1,-1,-1,-1,-1,-1,-1,-1,-1,-1,-1,-1,-1,-1,-1,-1,-1,-1,-1,-1,-1,-1,-1,-1,-1,-1,-1,-1,-1,-1,-1,-1],"split_conditions":[2.6296875E0,1.4012654E0,3.8761566E0,5.895459E-1,3.044516E2,2.3654799E2,4.802892E0,3.700888E2,3.2472168E2,1.8961766E0,2.2017944E0,3.2720942E0,3.4612153E0,3.0715338E2,3.3746487E1,7.607188E0,-3.1069173E-2,3.0892994E1,5.4971247E0,1.3970724E2,2.0547665E2,3.580285E1,8.224949E0,2.5556623E1,9.478014E0,6.441573E0,4.6292114E0,8.224949E0,6.540157E0,2.5286257E-2,3.5631906E-2,1.1200955E2,4.2849224E1,1.0732709E0,9.577825E0,1.2963411E0,-2.337326E-2,5.0367355E0,9.429958E0,2.2897854E0,2.672724E1,4.900421E0,1.8145282E0,3.9371582E2,3.833745E1,2.3587236E1,7.3401475E0,2.3830875E1,2.9061476E1,2.6581406E1,3.992733E1,1.4428871E-2,3.0501417E1,1.4219138E2,2.8459494E1,4.2313495E0,4.883845E2,-1.5238675E-2,-2.119555E-2,-2.6371976E-2,-1.4048121E-2,-1.9884415E-2,-1.3493567E-2,-1.0556995E-2,-1.5107984E-2,-1.9170005E-2,-1.0638666E-2,-1.5750102E-5,-5.5425297E-3,-6.3820104E-3,-1.07534295E-2,-1.0534494E-4,5.757728E-3,-5.8430205E-3,-6.2390673E-4,-1.0756977E-2,-1.5836513E-2,-1.1444663E-2,-6.2446105E-3,-6.7680766E-4,-4.7833584E-3,-9.79211E-3,-2.9982806E-3,6.5691876E-3,1.3656259E-3,1.1557752E-2,8.103117E-3,1.0964634E-2,1.9213606E-2,1.2601783E-2,5.6967377E-3,2.2656017E-3,6.8330513E-3,-6.8963703E-4,6.079755E-3,5.5374983E-3,1.0038321E-2,2.9366527E-2,2.2969307E-2,1.722101E-2,2.199866E-2,1.5420298E-2,2.1324387E-2,1.356708E-2,5.1546395E-3],"split_indices":[1,1,1,1,6,6,1,6,6,1,1,1,1,6,2,5,0,2,5,6,6,2,5,2,5,5,5,5,5,0,0,6,2,1,5,1,0,5,5,1,2,5,1,6,2,2,5,2,0,2,2,0,2,6,2,1,6,0,0,0,0,0,0,0,0,0,0,0,0,0,0,0,0,0,0,0,0,0,0,0,0,0,0,0,0,0,0,0,0,0,0,0,0,0,0,0,0,0,0,0,0,0,0,0,0],"split_type":[0,0,0,0,0,0,0,0,0,0,0,0,0,0,0,0,0,0,0,0,0,0,0,0,0,0,0,0,0,0,0,0,0,0,0,0,0,0,0,0,0,0,0,0,0,0,0,0,0,0,0,0,0,0,0,0,0,0,0,0,0,0,0,0,0,0,0,0,0,0,0,0,0,0,0,0,0,0,0,0,0,0,0,0,0,0,0,0,0,0,0,0,0,0,0,0,0,0,0,0,0,0,0,0,0],"sum_hessian":[1.399E3,7.37E2,6.62E2,3.82E2,3.55E2,3.49E2,3.13E2,1.53E2,2.29E2,1.97E2,1.58E2,1.48E2,2.01E2,2.57E2,5.6E1,1.14E2,3.9E1,1.4E2,8.9E1,7.8E1,1.19E2,1.01E2,5.7E1,6.5E1,8.3E1,1.38E2,6.3E1,1.61E2,9.6E1,3.2E1,2.4E1,5.9E1,5.5E1,5.3E1,8.7E1,3.3E1,5.6E1,3.3E1,4.5E1,7E1,4.9E1,6.2E1,3.9E1,3.2E1,2.5E1,1.3E1,5.2E1,4.7E1,3.6E1,5.1E1,8.7E1,1.8E1,4.5E1,7.1E1,9E1,4.5E1,5.1E1,1.8E1,4.1E1,5.1E1,4E0,3.4E1,1.9E1,5.7E1,3E1,2.8E1,5E0,1.3E1,2E1,2.3E1,2.2E1,3.7E1,3.3E1,1.7E1,3.2E1,1.8E1,4.4E1,2.1E1,1.8E1,1.8E1,1.4E1,1.8E1,7E0,1E1,3E0,2.1E1,3.1E1,7E0,4E1,3.3E1,3E0,1.7E1,3.4E1,7.4E1,1.3E1,2.2E1,2.3E1,3.2E1,3.9E1,3.4E1,5.6E1,2E1,2.5E1,4.8E1,3E0],"tree_param":{"num_deleted":"0","num_feature":"9","num_nodes":"105","size_leaf_vector":"1"}},{"base_weights":[1.7044519E-4,-2.6948345E-1,2.694394E-1,-4.1638157E-1,-1.468122E-1,1.0856781E-1,3.9378914E-1,-3.348474E-1,-4.6677017E-1,-2.3914593E-1,-9.141578E-2,1.8005413E-1,2.9534716E-2,3.0926758E-1,4.7140852E-1,-4.0437526E-1,-2.762716E-1,-5.5645984E-1,-4.1726404E-1,-1.5708177E-1,-2.949162E-1,-1.879358E-2,-1.5432192E-1,1.06453106E-1,2.3272526E-1,-1.4472064E-2,1.0559217E-1,3.5708052E-1,2.4354284E-1,5.683693E-1,4.029354E-1,-2.2872655E-2,-1.5837794E-2,-1.8157129E-1,-3.005195E-1,-2.99783E-2,-2.1366876E-2,-3.6332428E-1,-2.2810513E-2,-1.9049315E-1,-9.9027485E-2,-2.3610385E-1,-3.3018655E-1,1.1658114E-2,-9.9719286E-2,-1.1973745E-1,-2.256316E-1,5.688444E-2,1.558066E-1,1.7632046E-1,2.797761E-1,1.1044164E-2,-1.0369724E-1,6.663611E-2,2.0243552E-1,3.110271E-1,2.129379E-2,2.654221E-1,1.4857313E-1,5.0905436E-1,3.3229098E-2,4.3627614E-1,2.9448897E-1,-9.680843E-3,-3.0409852E-3,-9.568884E-3,-1.5622449E-2,-2.0216523E-2,-1.3799034E-2,-3.7737743E-3,-1.0740738E-2,-5.608367E-3,-2.643198E-4,-9.113364E-3,-1.3841177E-2,-7.4563534E-3,-1.6928531E-2,-1.2538887E-3,3.5494808E-3,-7.5121247E-3,-2.1481812E-3,-7.725544E-3,-2.9470942E-3,-1.2835169E-2,-6.4574755E-3,5.7486477E-3,1.336329E-3,9.273513E-3,4.298368E-3,1.13151595E-2,7.322376E-3,1.6280212E-2,1.06906835E-2,1.8769912E-3,-2.4669627E-3,-1.4162523E-3,-6.597889E-3,1.0250942E-3,4.534454E-3,1.1449138E-2,3.6092491E-3,1.6766971E-2,1.2192224E-2,1.3475738E-2,-1.1729598E-4,9.031589E-3,4.2960434E-3,2.5660826E-2,7.1074427E-3,1.6062895E-2,2.2903176E-2,1.888953E-2,1.1972616E-2],"categories":[],"categories_nodes":[],"categories_segments":[],"categories_sizes":[],"default_left":[0,0,0,0,0,0,0,0,0,0,0,0,0,0,0,0,0,0,0,0,0,0,0,0,0,0,0,0,0,0,0,0,0,0,0,0,0,0,0,0,0,0,0,0,0,0,0,0,0,0,0,0,0,0,0,0,0,0,0,0,0,0,0,0,0,0,0,0,0,0,0,0,0,0,0,0,0,0,0,0,0,0,0,0,0,0,0,0,0,0,0,0,0,0,0,0,0,0,0,0,0,0,0,0,0,0,0,0,0,0,0,0,0],"id":12,"left_children":[1,3,5,7,9,11,13,15,17,19,21,23,25,27,29,31,33,35,37,39,41,43,45,47,49,51,53,55,57,59,61,-1,-1,63,65,-1,-1,67,-1,69,71,73,75,77,79,81,83,85,87,89,91,93,95,97,99,101,-1,103,105,107,-1,109,111,-1,-1,-1,-1,-1,-1,-1,-1,-1,-1,-1,-1,-1,-1,-1,-1,-1,-1,-1,-1,-1,-1,-1,-1,-1,-1,-1,-1,-1,-1,-1,-1,-1,-1,-1,-1,-1,-1,-1,-1,-1,-1,-1,-1,-1,-1,-1,-1,-1,-1],"loss_changes":[1.0172581E2,1.255299E1,1.3980293E1,1.1501694E0,1.9371662E0,1.7291665E0,2.4456062E0,3.9736366E-1,6.292076E-1,6.081486E-1,1.0980799E0,5.993657E-1,4.935435E-1,5.1639557E-1,1.1253891E0,1.1088467E-1,1.0847044E-1,1.111393E-1,1.0524559E-1,9.751642E-2,9.628487E-2,2.7963123E-1,2.9112434E-1,1.5993768E-1,1.9748211E-1,2.1515411E-1,1.9023281E-1,2.1288109E-1,1.3510656E-1,1.2965202E-1,3.1624794E-1,0E0,0E0,1.2951136E-2,1.1813641E-2,0E0,0E0,9.972811E-2,0E0,8.729112E-2,2.8968915E-2,2.6271582E-2,2.5411129E-2,1.8268667E-1,8.243683E-2,1.7904496E-1,8.975959E-2,5.9992865E-2,5.449301E-2,3.404951E-2,7.850528E-2,1.2024469E-1,4.099354E-2,4.2527303E-2,3.5337746E-2,3.0931473E-2,0E0,7.405567E-2,2.0633787E-2,1.1037827E-2,0E0,8.339119E-2,5.6245565E-2,0E0,0E0,0E0,0E0,0E0,0E0,0E0,0E0,0E0,0E0,0E0,0E0,0E0,0E0,0E0,0E0,0E0,0E0,0E0,0E0,0E0,0E0,0E0,0E0,0E0,0E0,0E0,0E0,0E0,0E0,0E0,0E0,0E0,0E0,0E0,0E0,0E0,0E0,0E0,0E0,0E0,0E0,0E0,0E0,0E0,0E0,0E0,0E0,0E0,0E0],"parents":[2147483647,0,0,1,1,2,2,3,3,4,4,5,5,6,6,7,7,8,8,9,9,10,10,11,11,12,12,13,13,14,14,15,15,16,16,17,17,18,18,19,19,20,20,21,21,22,22,23,23,24,24,25,25,26,26,27,27,28,28,29,29,30,30,33,33,34,34,37,37,39,39,40,40,41,41,42,42,43,43,44,44,45,45,46,46,47,47,48,48,49,49,50,50,51,51,52,52,53,53,54,54,55,55,57,57,58,58,59,59,61,61,62,62],"right_children":[2,4,6,8,10,12,14,16,18,20,22,24,26,28,30,32,34,36,38,40,42,44,46,48,50,52,54,56,58,60,62,-1,-1,64,66,-1,-1,68,-1,70,72,74,76,78,80,82,84,86,88,90,92,94,96,98,100,102,-1,104,106,108,-1,110,112,-1,-1,-1,-1,-1,-1,-1,-1,-1,-1,-1,-1,-1,-1,-1,-1,-1,-1,-1,-1,-1,-1,-1,-1,-1,-1,-1,-1,-1,-1,-1,-1,-1,-1,-1,-1,-1,-1,-1,-1,-1,-1,-1,-1,-1,-1,-1,-1,-1,-1],"split_conditions":[2.5086384E0,1.1654555E0,3.5767796E0,1.9371178E2,1.6651564E0,2.7513232E2,4.258685E0,5.2040184E-1,4.5258075E-1,2.191162E2,2.5636664E2,2.9889126E0,3.1531963E0,2.8536145E2,2.0419594E2,3.242807E1,3.2350552E0,3.9357704E1,6.799819E0,3.7340145E1,5.899404E0,1.1487468E1,1.0346097E1,3.5424866E1,3.106291E1,1.2293131E1,3.728541E1,3.599227E1,1.0173886E1,4.779025E0,4.2248642E2,-2.2872655E-2,-1.5837794E-2,7.926296E1,4.4846165E1,-2.99783E-2,-2.1366876E-2,9.0165216E-1,-2.2810513E-2,2.6032388E0,1.6033009E0,4.0376758E2,1.2192393E1,2.2172432E0,3.242807E1,2.2017944E0,3.744547E1,3.2350552E0,9.847798E0,8.817205E1,8.948037E0,4.265491E2,3.505353E2,2.591751E1,6.7440424E0,1.1094001E1,2.129379E-2,4.9413617E2,4.0774356E2,1.4564613E1,3.3229098E-2,2.4887192E1,7.1664457E0,-9.680843E-3,-3.0409852E-3,-9.568884E-3,-1.5622449E-2,-2.0216523E-2,-1.3799034E-2,-3.7737743E-3,-1.0740738E-2,-5.608367E-3,-2.643198E-4,-9.113364E-3,-1.3841177E-2,-7.4563534E-3,-1.6928531E-2,-1.2538887E-3,3.5494808E-3,-7.5121247E-3,-2.1481812E-3,-7.725544E-3,-2.9470942E-3,-1.2835169E-2,-6.4574755E-3,5.7486477E-3,1.336329E-3,9.273513E-3,4.298368E-3,1.13151595E-2,7.322376E-3,1.6280212E-2,1.06906835E-2,1.8769912E-3,-2.4669627E-3,-1.4162523E-3,-6.597889E-3,1.0250942E-3,4.534454E-3,1.1449138E-2,3.6092491E-3,1.6766971E-2,1.2192224E-2,1.3475738E-2,-1.1729598E-4,9.031589E-3,4.2960434E-3,2.5660826E-2,7.1074427E-3,1.6062895E-2,2.2903176E-2,1.888953E-2,1.1972616E-2],"split_indices":[1,1,1,6,1,6,1,1,1,6,6,1,1,6,6,2,5,2,5,2,5,5,5,2,2,5,2,2,5,1,6,0,0,8,6,0,0,1,0,5,1,6,7,1,2,1,2,5,5,6,5,6,6,2,5,5,0,6,6,5,0,2,5,0,0,0,0,0,0,0,0,0,0,0,0,0,0,0,0,0,0,0,0,0,0,0,0,0,0,0,0,0,0,0,0,0,0,0,0,0,0,0,0,0,0,0,0,0,0,0,0,0,0],"split_type":[0,0,0,0,0,0,0,0,0,0,0,0,0,0,0,0,0,0,0,0,0,0,0,0,0,0,0,0,0,0,0,0,0,0,0,0,0,0,0,0,0,0,0,0,0,0,0,0,0,0,0,0,0,0,0,0,0,0,0,0,0,0,0,0,0,0,0,0,0,0,0,0,0,0,0,0,0,0,0,0,0,0,0,0,0,0,0,0,0,0,0,0,0,0,0,0,0,0,0,0,0,0,0,0,0,0,0,0,0,0,0,0,0],"sum_hessian":[1.399E3,6.99E2,7E2,3.17E2,3.82E2,3.06E2,3.94E2,1.24E2,1.93E2,1.42E2,2.4E2,1.6E2,1.46E2,1.91E2,2.03E2,5.4E1,7E1,6.5E1,1.28E2,5.9E1,8.3E1,1.12E2,1.28E2,6.8E1,9.2E1,9.3E1,5.3E1,1.08E2,8.3E1,8.1E1,1.22E2,3.1E1,2.3E1,1.6E1,5.4E1,4.6E1,1.9E1,5.8E1,7E1,3.6E1,2.3E1,3.4E1,4.9E1,8.2E1,3E1,8.8E1,4E1,3.5E1,3.3E1,4.4E1,4.8E1,7.3E1,2E1,3.9E1,1.4E1,6.8E1,4E1,6.6E1,1.7E1,5.4E1,2.7E1,9.1E1,3.1E1,1.4E1,2E0,7E0,4.7E1,3.7E1,2.1E1,7E0,2.9E1,2E1,3E0,1.7E1,1.7E1,3E0,4.6E1,5.1E1,3.1E1,1.5E1,1.5E1,5.5E1,3.3E1,2.9E1,1.1E1,1.1E1,2.4E1,2.2E1,1.1E1,1.4E1,3E1,2.6E1,2.2E1,5.1E1,2.2E1,6E0,1.4E1,1.4E1,2.5E1,1.1E1,3E0,4.7E1,2.1E1,6.5E1,1E0,1E1,7E0,5.3E1,1E0,1.7E1,7.4E1,1E1,2.1E1],"tree_param":{"num_deleted":"0","num_feature":"9","num_nodes":"113","size_leaf_vector":"1"}},{"base_weights":[1.6275431E-4,-2.4289577E-1,2.7071634E-1,-3.7183094E-1,-1.0349949E-1,1.4859137E-1,4.0598074E-1,-4.3058237E-1,-2.907508E-1,-4.097497E-2,-1.8070927E-1,2.332738E-1,8.5392E-2,3.7261453E-1,5.498842E-1,-3.4880927E-1,-4.8451138E-1,-2.3842408E-1,-3.7519717E-1,-1.1874136E-1,1.05626965E-2,-2.2932959E-1,-9.20889E-2,1.6280921E-1,2.8586176E-1,4.0523857E-2,1.8150575E-1,4.1870284E-1,2.918009E-1,2.288457E-2,3.2479167E-2,-2.0649219E-2,-2.8792602E-1,-5.285389E-1,-2.017483E-2,-2.0095205E-1,-3.0655605E-1,-3.1603E-1,-2.0947073E-2,-6.1037682E-2,-1.5881057E-1,-2.6191615E-2,7.240192E-2,-2.6541322E-1,-1.6676462E-1,-1.4023423E-2,-1.2411548E-1,1.9580889E-1,1.3165246E-1,3.3070654E-1,2.1995875E-1,9.800059E-2,6.099831E-3,1.3592517E-1,2.4717446E-1,2.5652781E-2,3.8565075E-1,3.4671894E-1,2.3760799E-1,-1.4581995E-2,-2.6486577E-3,-2.3606613E-2,-2.9813895E-2,-1.1513105E-2,-6.3268202E-3,-1.6477032E-2,-1.017703E-2,-3.4042716E-3,-1.6111603E-2,9.121044E-5,-5.0019524E-3,-5.83501E-3,-9.792351E-3,7.323837E-4,-3.992516E-3,6.821384E-3,1.4328356E-3,-9.793719E-3,-1.44438E-2,-1.0333089E-2,-5.5895406E-3,-1.7373314E-3,2.3403119E-3,-8.118342E-3,-3.5639417E-3,1.1683499E-2,7.1184896E-3,6.9263177E-3,3.7865242E-4,9.903507E-3,1.7426042E-2,1.1355577E-2,5.208522E-3,2.0453294E-3,6.2281606E-3,-6.771603E-4,5.544734E-3,1.0177774E-2,5.9001744E-3,1.2972902E-2,3.530447E-3,2.3981651E-2,1.814827E-2,4.323614E-3,1.7529031E-2,1.22237485E-2,4.7042817E-3],"categories":[],"categories_nodes":[],"categories_segments":[],"categories_sizes":[],"default_left":[0,0,0,0,0,0,0,0,0,0,0,0,0,0,0,0,0,0,0,0,0,0,0,0,0,0,0,0,0,0,0,0,0,0,0,0,0,0,0,0,0,0,0,0,0,0,0,0,0,0,0,0,0,0,0,0,0,0,0,0,0,0,0,0,0,0,0,0,0,0,0,0,0,0,0,0,0,0,0,0,0,0,0,0,0,0,0,0,0,0,0,0,0,0,0,0,0,0,0,0,0,0,0,0,0,0,0],"id":13,"left_children":[1,3,5,7,9,11,13,15,17,19,21,23,25,27,29,31,33,35,37,39,41,43,45,47,49,51,53,55,57,-1,-1,-1,59,61,-1,63,65,67,-1,69,71,73,75,77,79,81,83,85,87,89,91,93,95,97,99,-1,101,103,105,-1,-1,-1,-1,-1,-1,-1,-1,-1,-1,-1,-1,-1,-1,-1,-1,-1,-1,-1,-1,-1,-1,-1,-1,-1,-1,-1,-1,-1,-1,-1,-1,-1,-1,-1,-1,-1,-1,-1,-1,-1,-1,-1,-1,-1,-1,-1,-1],"loss_changes":[9.213024E1,1.3225651E1,1.0891884E1,1.6992607E0,1.7111874E0,1.8532362E0,1.3027763E0,8.011818E-1,6.352272E-1,7.9481816E-1,6.639724E-1,5.0559235E-1,8.637588E-1,8.387604E-1,2.2660828E-1,2.3664474E-1,2.5043297E-1,2.0391369E-1,2.5484085E-2,1.7296576E-1,2.7463928E-1,1.8601084E-1,1.432693E-1,4.2079926E-2,1.7551279E-1,2.7442497E-1,1.5796852E-1,3.0734444E-1,2.0630455E-1,0E0,0E0,0E0,2.8180122E-2,2.7971268E-2,0E0,1.2354231E-1,1.57969E-2,2.4193525E-2,0E0,8.3540276E-2,4.8887014E-2,1.6771473E-1,1.2212731E-1,4.6205997E-2,6.462908E-2,2.4316901E-2,7.129067E-2,2.7430415E-2,3.0508578E-2,4.4383526E-2,6.985426E-3,7.376593E-2,1.8264891E-1,2.4461687E-2,3.5901308E-2,0E0,9.028053E-2,1.5913963E-2,2.8247833E-2,0E0,0E0,0E0,0E0,0E0,0E0,0E0,0E0,0E0,0E0,0E0,0E0,0E0,0E0,0E0,0E0,0E0,0E0,0E0,0E0,0E0,0E0,0E0,0E0,0E0,0E0,0E0,0E0,0E0,0E0,0E0,0E0,0E0,0E0,0E0,0E0,0E0,0E0,0E0,0E0,0E0,0E0,0E0,0E0,0E0,0E0,0E0,0E0],"parents":[2147483647,0,0,1,1,2,2,3,3,4,4,5,5,6,6,7,7,8,8,9,9,10,10,11,11,12,12,13,13,14,14,15,15,16,16,17,17,18,18,19,19,20,20,21,21,22,22,23,23,24,24,25,25,26,26,27,27,28,28,32,32,33,33,35,35,36,36,37,37,39,39,40,40,41,41,42,42,43,43,44,44,45,45,46,46,47,47,48,48,49,49,50,50,51,51,52,52,53,53,54,54,56,56,57,57,58,58],"right_children":[2,4,6,8,10,12,14,16,18,20,22,24,26,28,30,32,34,36,38,40,42,44,46,48,50,52,54,56,58,-1,-1,-1,60,62,-1,64,66,68,-1,70,72,74,76,78,80,82,84,86,88,90,92,94,96,98,100,-1,102,104,106,-1,-1,-1,-1,-1,-1,-1,-1,-1,-1,-1,-1,-1,-1,-1,-1,-1,-1,-1,-1,-1,-1,-1,-1,-1,-1,-1,-1,-1,-1,-1,-1,-1,-1,-1,-1,-1,-1,-1,-1,-1,-1,-1,-1,-1,-1,-1,-1],"split_conditions":[2.6296875E0,1.4012654E0,3.8761566E0,8.1720346E-1,3.044516E2,2.3654799E2,4.802892E0,1.9371178E2,3.4741135E2,1.8961766E0,2.2017944E0,3.2720942E0,3.4612153E0,3.0715338E2,3.3746487E1,3.0501417E1,3.580285E1,9.577825E0,8.043662E0,1.3970724E2,3.7196434E1,3.580285E1,4.5206585E0,1.2027943E2,9.478014E0,6.441573E0,3.4531315E1,4.6715627E0,6.540157E0,2.288457E-2,3.2479167E-2,-2.0649219E-2,7.471501E-1,3.785012E2,-2.017483E-2,3.653764E1,3.8688904E1,3.5485968E2,-2.0947073E-2,5.0367355E0,9.429958E0,7.980886E0,6.5973105E0,4.900421E0,1.8145282E0,3.3422714E1,3.4267902E1,9.915787E0,2.7497551E1,2.3830875E1,2.9061476E1,2.6581406E1,3.992733E1,3.0226483E0,4.7259247E2,2.5652781E-2,6.863454E1,6.085121E-1,4.883845E2,-1.4581995E-2,-2.6486577E-3,-2.3606613E-2,-2.9813895E-2,-1.1513105E-2,-6.3268202E-3,-1.6477032E-2,-1.017703E-2,-3.4042716E-3,-1.6111603E-2,9.121044E-5,-5.0019524E-3,-5.83501E-3,-9.792351E-3,7.323837E-4,-3.992516E-3,6.821384E-3,1.4328356E-3,-9.793719E-3,-1.44438E-2,-1.0333089E-2,-5.5895406E-3,-1.7373314E-3,2.3403119E-3,-8.118342E-3,-3.5639417E-3,1.1683499E-2,7.1184896E-3,6.9263177E-3,3.7865242E-4,9.903507E-3,1.7426042E-2,1.1355577E-2,5.208522E-3,2.0453294E-3,6.2281606E-3,-6.771603E-4,5.544734E-3,1.0177774E-2,5.9001744E-3,1.2972902E-2,3.530447E-3,2.3981651E-2,1.814827E-2,4.323614E-3,1.7529031E-2,1.22237485E-2,4.7042817E-3],"split_indices":[1,1,1,1,6,6,1,6,6,1,1,1,1,6,2,2,2,5,5,6,2,2,5,6,5,5,2,5,5,0,0,0,1,6,0,2,2,6,0,5,5,5,5,5,1,2,2,5,0,2,0,2,2,5,6,0,6,0,6,0,0,0,0,0,0,0,0,0,0,0,0,0,0,0,0,0,0,0,0,0,0,0,0,0,0,0,0,0,0,0,0,0,0,0,0,0,0,0,0,0,0,0,0,0,0,0,0],"split_type":[0,0,0,0,0,0,0,0,0,0,0,0,0,0,0,0,0,0,0,0,0,0,0,0,0,0,0,0,0,0,0,0,0,0,0,0,0,0,0,0,0,0,0,0,0,0,0,0,0,0,0,0,0,0,0,0,0,0,0,0,0,0,0,0,0,0,0,0,0,0,0,0,0,0,0,0,0,0,0,0,0,0,0,0,0,0,0,0,0,0,0,0,0,0,0,0,0,0,0,0,0,0,0,0,0,0,0],"sum_hessian":[1.399E3,7.37E2,6.62E2,3.82E2,3.55E2,3.49E2,3.13E2,2.19E2,1.63E2,1.97E2,1.58E2,1.48E2,2.01E2,2.57E2,5.6E1,9E1,1.29E2,1.03E2,6E1,7.8E1,1.19E2,1.01E2,5.7E1,6.5E1,8.3E1,1.38E2,6.3E1,1.61E2,9.6E1,3.2E1,2.4E1,4.1E1,4.9E1,8E1,4.9E1,6.9E1,3.4E1,2.9E1,3.1E1,3.3E1,4.5E1,7.5E1,4.4E1,6.2E1,3.9E1,1.7E1,4E1,2.9E1,3.6E1,4.7E1,3.6E1,5.1E1,8.7E1,3.9E1,2.4E1,3.8E1,1.23E2,4.5E1,5.1E1,4.8E1,1E0,4.8E1,3.2E1,4.8E1,2.1E1,2.6E1,8E0,1E0,2.8E1,1.3E1,2E1,2.3E1,2.2E1,4.3E1,3.2E1,1.7E1,2.7E1,1.8E1,4.4E1,2.1E1,1.8E1,1.3E1,4E0,2.2E1,1.8E1,1.5E1,1.4E1,3.4E1,2E0,7E0,4E1,3.3E1,3E0,1.7E1,3.4E1,7.4E1,1.3E1,6E0,3.3E1,2.2E1,2E0,2E1,1.03E2,1E0,4.4E1,4.8E1,3E0],"tree_param":{"num_deleted":"0","num_feature":"9","num_nodes":"107","size_leaf_vector":"1"}},{"base_weights":[1.6492324E-4,-2.2238328E-1,2.6785234E-1,-3.5375232E-1,-9.043359E-2,1.5197557E-1,3.8619742E-1,-4.4393614E-1,-3.0510938E-1,-6.0456707E-3,-1.4414194E-1,2.2608507E-1,9.4761945E-2,3.3246177E-1,4.669376E-1,-3.9917186E-1,-2.6845733E-2,-2.3550867E-1,-3.5651478E-1,-6.930573E-2,8.004294E-2,-2.1201296E-1,-8.11688E-2,1.5432014E-1,2.720912E-1,5.2628636E-2,1.7293958E-1,4.3503374E-1,3.026071E-1,5.279225E-1,3.735174E-1,-1.6654437E-2,-4.517141E-1,-2.7500215E-1,-1.7671946E-1,-3.936819E-1,-2.8796747E-1,-1.5928727E-2,-1.06671296E-1,1.7756408E-1,4.3836642E-2,-1.6189067E-1,-2.6101443E-1,-2.1319024E-2,-1.19188406E-1,9.474104E-2,1.6976984E-1,3.1474063E-1,2.0940845E-1,1.0049962E-1,1.9775113E-2,2.5186747E-1,1.3657938E-1,1.5644656E-2,2.4338864E-2,1.8185902E-2,2.671922E-1,3.002344E-2,4.4306877E-1,3.933263E-1,2.351718E-1,-2.3101253E-2,-1.1010456E-2,-1.4811727E-2,-9.639516E-3,-7.048674E-3,-1.2545414E-2,-1.4583706E-2,-2.0756641E-2,-1.4575479E-2,-2.5059283E-3,-2.8437371E-3,1.5225888E-3,-6.408506E-3,-2.5815994E-3,1.852413E-3,9.691482E-3,3.6276111E-4,4.5262207E-3,-6.42052E-3,-1.0541986E-2,-1.11497585E-2,-1.6644066E-2,-2.3404292E-3,2.6434055E-3,-3.1971526E-3,-7.7298842E-3,5.688335E-3,9.367615E-4,5.2270987E-3,9.177791E-3,9.470232E-3,1.657599E-2,1.0804495E-2,5.0132037E-3,6.3964846E-3,2.307587E-3,-1.5987856E-3,2.63431E-3,5.2212556E-3,1.3153548E-2,4.6398705E-3,8.642315E-3,1.5200143E-2,1.096071E-2,6.500393E-3,2.2407679E-2,1.2611858E-2,2.0660084E-2,3.5143257E-3,1.2349832E-2],"categories":[],"categories_nodes":[],"categories_segments":[],"categories_sizes":[],"default_left":[0,0,0,0,0,0,0,0,0,0,0,0,0,0,0,0,0,0,0,0,0,0,0,0,0,0,0,0,0,0,0,0,0,0,0,0,0,0,0,0,0,0,0,0,0,0,0,0,0,0,0,0,0,0,0,0,0,0,0,0,0,0,0,0,0,0,0,0,0,0,0,0,0,0,0,0,0,0,0,0,0,0,0,0,0,0,0,0,0,0,0,0,0,0,0,0,0,0,0,0,0,0,0,0,0,0,0,0,0,0,0],"id":14,"left_children":[1,3,5,7,9,11,13,15,17,19,21,23,25,27,29,31,-1,33,35,37,39,41,43,45,47,49,51,53,55,57,59,-1,61,63,65,67,69,71,73,75,77,79,81,83,85,87,89,91,93,95,97,99,101,-1,-1,-1,103,-1,105,107,109,-1,-1,-1,-1,-1,-1,-1,-1,-1,-1,-1,-1,-1,-1,-1,-1,-1,-1,-1,-1,-1,-1,-1,-1,-1,-1,-1,-1,-1,-1,-1,-1,-1,-1,-1,-1,-1,-1,-1,-1,-1,-1,-1,-1,-1,-1,-1,-1,-1,-1],"loss_changes":[8.346226E1,1.3228596E1,8.663059E0,1.5447006E0,1.7350135E0,1.3481193E0,1.2070885E0,3.350773E-1,8.176575E-1,8.224432E-1,9.829192E-1,4.2023897E-1,5.969728E-1,4.5630836E-1,5.0357056E-1,1.7244911E-1,0E0,2.067995E-1,2.5095558E-1,1.7181903E-1,2.1819249E-1,2.3282337E-1,2.7734125E-1,3.6383033E-2,1.5865469E-1,1.88313E-1,1.4926958E-1,1.0681009E-1,2.3178196E-1,1.771698E-1,5.000639E-2,0E0,1.5222549E-2,5.460453E-2,8.9270234E-2,7.585049E-2,3.0884266E-2,7.199851E-2,5.3729653E-2,3.167361E-2,8.132267E-2,6.7978024E-2,7.6046705E-2,9.513356E-2,1.3682938E-1,1.811339E-2,2.0376801E-2,3.8154602E-2,5.316019E-3,6.714335E-2,1.2601653E-1,3.914237E-3,5.7000756E-2,0E0,0E0,0E0,1.09968185E-1,0E0,6.351471E-4,1.9159794E-2,1.8712878E-4,0E0,0E0,0E0,0E0,0E0,0E0,0E0,0E0,0E0,0E0,0E0,0E0,0E0,0E0,0E0,0E0,0E0,0E0,0E0,0E0,0E0,0E0,0E0,0E0,0E0,0E0,0E0,0E0,0E0,0E0,0E0,0E0,0E0,0E0,0E0,0E0,0E0,0E0,0E0,0E0,0E0,0E0,0E0,0E0,0E0,0E0,0E0,0E0,0E0,0E0],"parents":[2147483647,0,0,1,1,2,2,3,3,4,4,5,5,6,6,7,7,8,8,9,9,10,10,11,11,12,12,13,13,14,14,15,15,17,17,18,18,19,19,20,20,21,21,22,22,23,23,24,24,25,25,26,26,27,27,28,28,29,29,30,30,32,32,33,33,34,34,35,35,36,36,37,37,38,38,39,39,40,40,41,41,42,42,43,43,44,44,45,45,46,46,47,47,48,48,49,49,50,50,51,51,52,52,56,56,58,58,59,59,60,60],"right_children":[2,4,6,8,10,12,14,16,18,20,22,24,26,28,30,32,-1,34,36,38,40,42,44,46,48,50,52,54,56,58,60,-1,62,64,66,68,70,72,74,76,78,80,82,84,86,88,90,92,94,96,98,100,102,-1,-1,-1,104,-1,106,108,110,-1,-1,-1,-1,-1,-1,-1,-1,-1,-1,-1,-1,-1,-1,-1,-1,-1,-1,-1,-1,-1,-1,-1,-1,-1,-1,-1,-1,-1,-1,-1,-1,-1,-1,-1,-1,-1,-1,-1,-1,-1,-1,-1,-1,-1,-1,-1,-1,-1,-1],"split_conditions":[2.7305143E0,1.4012654E0,3.8761566E0,5.2040184E-1,2.2066031E2,2.3654799E2,4.553048E0,3.488452E2,2.191162E2,2.1644216E0,2.0575445E0,3.2720942E0,3.4612153E0,1.2633231E2,2.6804123E2,7.607188E0,-2.6845733E-2,1.0021099E0,1.0958557E0,6.5973105E0,6.863454E1,7.889431E0,6.540157E0,2.5556623E1,9.478014E0,6.7440424E0,4.6292114E0,2.7305214E1,5.5396233E0,7.8288226E0,1.335841E1,-1.6654437E-2,4.2849224E1,3.8600685E1,9.760213E0,2.4745178E0,4.3909386E1,3.2704437E1,1.8961766E0,1.8232124E1,2.4488196E0,4.1109274E2,4.3759595E2,3.6276512E1,3.6283234E2,2.3587236E1,2.836886E0,2.3830875E1,2.9061476E1,3.998621E2,2.8574833E1,4.1383038E1,3.0501417E1,1.5644656E-2,2.4338864E-2,1.8185902E-2,2.9954468E2,3.002344E-2,7.185657E-1,2.2826426E1,3.0805574E1,-2.3101253E-2,-1.1010456E-2,-1.4811727E-2,-9.639516E-3,-7.048674E-3,-1.2545414E-2,-1.4583706E-2,-2.0756641E-2,-1.4575479E-2,-2.5059283E-3,-2.8437371E-3,1.5225888E-3,-6.408506E-3,-2.5815994E-3,1.852413E-3,9.691482E-3,3.6276111E-4,4.5262207E-3,-6.42052E-3,-1.0541986E-2,-1.11497585E-2,-1.6644066E-2,-2.3404292E-3,2.6434055E-3,-3.1971526E-3,-7.7298842E-3,5.688335E-3,9.367615E-4,5.2270987E-3,9.177791E-3,9.470232E-3,1.657599E-2,1.0804495E-2,5.0132037E-3,6.3964846E-3,2.307587E-3,-1.5987856E-3,2.63431E-3,5.2212556E-3,1.3153548E-2,4.6398705E-3,8.642315E-3,1.5200143E-2,1.096071E-2,6.500393E-3,2.2407679E-2,1.2611858E-2,2.0660084E-2,3.5143257E-3,1.2349832E-2],"split_indices":[1,1,1,1,6,6,1,6,6,1,1,1,1,6,6,5,0,1,1,5,6,5,5,2,5,5,5,2,5,5,5,0,2,2,5,5,2,2,1,4,1,6,6,2,6,2,1,2,0,6,2,8,2,0,0,0,6,0,0,2,8,0,0,0,0,0,0,0,0,0,0,0,0,0,0,0,0,0,0,0,0,0,0,0,0,0,0,0,0,0,0,0,0,0,0,0,0,0,0,0,0,0,0,0,0,0,0,0,0,0,0],"split_type":[0,0,0,0,0,0,0,0,0,0,0,0,0,0,0,0,0,0,0,0,0,0,0,0,0,0,0,0,0,0,0,0,0,0,0,0,0,0,0,0,0,0,0,0,0,0,0,0,0,0,0,0,0,0,0,0,0,0,0,0,0,0,0,0,0,0,0,0,0,0,0,0,0,0,0,0,0,0,0,0,0,0,0,0,0,0,0,0,0,0,0,0,0,0,0,0,0,0,0,0,0,0,0,0,0,0,0,0,0,0,0],"sum_hessian":[1.399E3,7.64E2,6.35E2,3.82E2,3.82E2,3.22E2,3.13E2,1.31E2,2.51E2,1.49E2,2.33E2,1.39E2,1.83E2,1.91E2,1.22E2,9.2E1,3.9E1,1.09E2,1.42E2,8.6E1,6.3E1,1.11E2,1.22E2,5.6E1,8.3E1,1.2E2,6.3E1,4E1,1.51E2,7.1E1,5.1E1,4.4E1,4.8E1,6.3E1,4.6E1,8.9E1,5.3E1,3.6E1,5E1,1.6E1,4.7E1,5.7E1,5.4E1,4.8E1,7.4E1,1.3E1,4.3E1,4.7E1,3.6E1,4.8E1,7.2E1,1.8E1,4.5E1,1.4E1,2.6E1,5.2E1,9.9E1,3.5E1,3.6E1,4.3E1,8E0,4.5E1,3E0,4.8E1,1.5E1,3.3E1,1.3E1,1.8E1,7.1E1,5.2E1,1E0,1.9E1,1.7E1,3.5E1,1.5E1,2E0,1.4E1,2.7E1,2E1,3.6E1,2.1E1,3.8E1,1.6E1,3.6E1,1.2E1,3E1,4.4E1,1E1,3E0,9E0,3.4E1,7E0,4E1,3.3E1,3E0,3.1E1,1.7E1,2.8E1,4.4E1,2E0,1.6E1,2.2E1,2.3E1,5.3E1,4.6E1,1E0,3.5E1,7E0,3.6E1,1E0,7E0],"tree_param":{"num_deleted":"0","num_feature":"9","num_nodes":"111","size_leaf_vector":"1"}},{"base_weights":[2.090632E-4,-2.3225296E-1,2.3233916E-1,-3.5106975E-1,-1.1970457E-1,1.22357406E-1,3.6750025E-1,-3.170523E-1,-4.5423377E-1,-7.2856E-2,-1.9759285E-1,5.4142684E-2,1.9614898E-1,3.3688137E-1,4.996436E-1,-3.882499E-1,-2.6908264E-1,-2.8128643E-2,-2.0510597E-2,-1.3150594E-1,-5.851351E-3,-2.3119994E-1,-1.0233088E-1,1.1518577E-1,-5.0731967E-3,2.3452577E-1,1.0047833E-1,3.7881207E-1,2.6337978E-1,3.9518297E-1,2.8725395E-2,-2.1703038E-2,-3.2057706E-1,-3.1625947E-1,-2.2992392E-1,-7.1437865E-2,-1.6739519E-1,2.9630687E-2,-6.146952E-2,-1.8491894E-1,-2.7285692E-1,-1.2968597E-1,-3.4533937E-2,1.5839683E-1,8.6146794E-2,1.6691811E-2,-8.695603E-2,1.9826426E-1,2.8323194E-1,4.555668E-2,1.3571225E-1,4.3353543E-1,3.3135167E-1,2.2056636E-1,1.6202444E-2,2.0597016E-2,9.792152E-3,-5.978239E-3,-1.6357295E-2,-9.214349E-3,-1.6409362E-2,-1.2982408E-2,-8.906257E-3,-6.0007017E-4,-5.0863805E-3,-6.1953813E-3,-1.0677752E-2,5.591888E-3,3.6782701E-4,-6.143386E-4,-6.017993E-3,-1.1175002E-2,-6.690512E-3,-1.597071E-2,-1.14064375E-2,1.6658306E-4,-7.04548E-3,1.0423756E-3,-3.2415302E-3,9.353605E-3,4.691434E-3,2.4631002E-3,6.6067944E-3,-1.5493623E-3,2.0116637E-3,-5.5471174E-3,8.3929545E-4,1.0806129E-2,5.383026E-3,1.5468547E-2,1.0688335E-2,4.4842907E-3,8.021045E-4,8.051125E-3,2.516344E-3,1.3394629E-2,2.2362625E-2,1.4850785E-2,1.9134965E-2,1.2460544E-2,6.9942074E-3],"categories":[],"categories_nodes":[],"categories_segments":[],"categories_sizes":[],"default_left":[0,0,0,0,0,0,0,0,0,0,0,0,0,0,0,0,0,0,0,0,0,0,0,0,0,0,0,0,0,0,0,0,0,0,0,0,0,0,0,0,0,0,0,0,0,0,0,0,0,0,0,0,0,0,0,0,0,0,0,0,0,0,0,0,0,0,0,0,0,0,0,0,0,0,0,0,0,0,0,0,0,0,0,0,0,0,0,0,0,0,0,0,0,0,0,0,0,0,0,0,0],"id":15,"left_children":[1,3,5,7,9,11,13,15,17,19,21,23,25,27,29,31,33,-1,-1,35,37,39,41,43,45,47,49,51,53,55,-1,-1,57,59,61,63,65,67,69,71,73,75,77,79,81,83,85,87,89,91,93,95,97,99,-1,-1,-1,-1,-1,-1,-1,-1,-1,-1,-1,-1,-1,-1,-1,-1,-1,-1,-1,-1,-1,-1,-1,-1,-1,-1,-1,-1,-1,-1,-1,-1,-1,-1,-1,-1,-1,-1,-1,-1,-1,-1,-1,-1,-1,-1,-1],"loss_changes":[7.559996E1,9.318821E0,1.0375576E1,1.0491753E0,1.3028765E0,1.9424443E0,1.1021461E0,7.8009796E-1,1.6030502E-1,8.9129937E-1,4.0854073E-1,7.3437256E-1,6.593399E-1,6.9537926E-1,2.1872711E-1,1.7706394E-1,2.1917152E-1,0E0,0E0,2.4889326E-1,2.129801E-1,1.4040852E-1,6.41413E-2,1.1183512E-1,1.8679824E-1,1.7697859E-1,1.0024816E-1,2.7709198E-1,1.8047905E-1,9.5152855E-3,0E0,0E0,2.0303726E-2,4.8134804E-2,9.2321396E-2,8.339393E-2,1.2409234E-1,1.2002936E-1,1.20169505E-1,6.8684936E-2,3.1253576E-2,3.928587E-2,2.1486033E-2,5.465609E-2,9.8661244E-2,9.4408795E-2,5.660677E-2,1.0455656E-1,3.1917572E-2,2.8517667E-2,6.321341E-2,4.3777466E-2,4.677105E-2,1.0380554E-1,0E0,0E0,0E0,0E0,0E0,0E0,0E0,0E0,0E0,0E0,0E0,0E0,0E0,0E0,0E0,0E0,0E0,0E0,0E0,0E0,0E0,0E0,0E0,0E0,0E0,0E0,0E0,0E0,0E0,0E0,0E0,0E0,0E0,0E0,0E0,0E0,0E0,0E0,0E0,0E0,0E0,0E0,0E0,0E0,0E0,0E0,0E0],"parents":[2147483647,0,0,1,1,2,2,3,3,4,4,5,5,6,6,7,7,8,8,9,9,10,10,11,11,12,12,13,13,14,14,15,15,16,16,19,19,20,20,21,21,22,22,23,23,24,24,25,25,26,26,27,27,28,28,29,29,32,32,33,33,34,34,35,35,36,36,37,37,38,38,39,39,40,40,41,41,42,42,43,43,44,44,45,45,46,46,47,47,48,48,49,49,50,50,51,51,52,52,53,53],"right_children":[2,4,6,8,10,12,14,16,18,20,22,24,26,28,30,32,34,-1,-1,36,38,40,42,44,46,48,50,52,54,56,-1,-1,58,60,62,64,66,68,70,72,74,76,78,80,82,84,86,88,90,92,94,96,98,100,-1,-1,-1,-1,-1,-1,-1,-1,-1,-1,-1,-1,-1,-1,-1,-1,-1,-1,-1,-1,-1,-1,-1,-1,-1,-1,-1,-1,-1,-1,-1,-1,-1,-1,-1,-1,-1,-1,-1,-1,-1,-1,-1,-1,-1,-1,-1],"split_conditions":[2.5086384E0,1.2540462E0,3.8761566E0,3.8845932E2,3.4354462E2,3.2090967E0,4.802892E0,5.2040184E-1,3.7417844E-1,1.8961766E0,2.2017944E0,2.7513232E2,3.6678745E2,3.0715338E2,2.911971E1,3.2528408E1,3.1266315E1,-2.8128643E-2,-2.0510597E-2,1.581991E2,8.874995E0,7.889431E0,3.744547E1,1.3634329E2,1.2293131E1,3.5332607E1,2.8355686E1,8.224949E0,3.4267902E1,3.9054346E2,2.8725395E-2,-2.1703038E-2,9.038117E-1,8.3579994E1,9.5601475E-1,5.0367355E0,8.610953E0,9.347535E1,1.9553847E2,3.2117355E1,1.6194061E0,1.8446423E1,4.3042057E1,1.0406276E1,2.9168603E0,2.75856E0,3.833745E1,1.2416314E1,9.478014E0,1.40922785E1,1.0768696E1,2.1919912E1,3.4962574E1,1.0927066E1,1.6202444E-2,2.0597016E-2,9.792152E-3,-5.978239E-3,-1.6357295E-2,-9.214349E-3,-1.6409362E-2,-1.2982408E-2,-8.906257E-3,-6.0007017E-4,-5.0863805E-3,-6.1953813E-3,-1.0677752E-2,5.591888E-3,3.6782701E-4,-6.143386E-4,-6.017993E-3,-1.1175002E-2,-6.690512E-3,-1.597071E-2,-1.14064375E-2,1.6658306E-4,-7.04548E-3,1.0423756E-3,-3.2415302E-3,9.353605E-3,4.691434E-3,2.4631002E-3,6.6067944E-3,-1.5493623E-3,2.0116637E-3,-5.5471174E-3,8.3929545E-4,1.0806129E-2,5.383026E-3,1.5468547E-2,1.0688335E-2,4.4842907E-3,8.021045E-4,8.051125E-3,2.516344E-3,1.3394629E-2,2.2362625E-2,1.4850785E-2,1.9134965E-2,1.2460544E-2,6.9942074E-3],"split_indices":[1,1,1,6,6,1,1,1,1,1,1,6,6,6,2,2,2,0,0,6,5,5,2,6,5,2,2,5,2,6,0,0,5,6,1,5,5,6,6,2,1,4,2,5,1,1,2,5,5,0,5,2,2,5,0,0,0,0,0,0,0,0,0,0,0,0,0,0,0,0,0,0,0,0,0,0,0,0,0,0,0,0,0,0,0,0,0,0,0,0,0,0,0,0,0,0,0,0,0,0,0],"split_type":[0,0,0,0,0,0,0,0,0,0,0,0,0,0,0,0,0,0,0,0,0,0,0,0,0,0,0,0,0,0,0,0,0,0,0,0,0,0,0,0,0,0,0,0,0,0,0,0,0,0,0,0,0,0,0,0,0,0,0,0,0,0,0,0,0,0,0,0,0,0,0,0,0,0,0,0,0,0,0,0,0,0,0,0,0,0,0,0,0,0,0,0,0,0,0,0,0,0,0,0,0],"sum_hessian":[1.399E3,6.99E2,7E2,3.39E2,3.6E2,3.87E2,3.13E2,2.58E2,8.1E1,2.26E2,1.34E2,2.02E2,1.85E2,2.57E2,5.6E1,1.01E2,1.57E2,2E1,6.1E1,1.2E2,1.06E2,9.8E1,3.6E1,9.9E1,1.03E2,1.31E2,5.4E1,1.61E2,9.6E1,2.6E1,3E1,5.7E1,4.4E1,6.8E1,8.9E1,4.6E1,7.4E1,6.5E1,4.1E1,4.9E1,4.9E1,2.5E1,1.1E1,3.8E1,6.1E1,8.2E1,2.1E1,7.8E1,5.3E1,2.2E1,3.2E1,7.1E1,9E1,5.9E1,3.7E1,2.3E1,3E0,2E0,4.2E1,7E0,6.1E1,5.4E1,3.5E1,1.6E1,3E1,4E1,3.4E1,1.3E1,5.2E1,2.3E1,1.8E1,2.6E1,2.3E1,2.1E1,2.8E1,2E0,2.3E1,4E0,7E0,2.5E1,1.3E1,3.5E1,2.6E1,2.7E1,5.5E1,1.7E1,4E0,6.4E1,1.4E1,3.6E1,1.7E1,8E0,1.4E1,2.4E1,8E0,7E0,6.4E1,5.8E1,3.2E1,4.2E1,1.7E1],"tree_param":{"num_deleted":"0","num_feature":"9","num_nodes":"101","size_leaf_vector":"1"}},{"base_weights":[2.1562807E-4,-2.0133285E-1,2.4264388E-1,-3.2027012E-1,-8.186991E-2,1.3980609E-1,3.5170552E-1,-3.7138417E-1,-2.4974963E-1,-4.9424646E-3,-1.308325E-1,2.0593406E-1,8.785861E-2,4.2772388E-1,2.9954442E-1,-2.982866E-1,-4.1969568E-1,-2.0393081E-1,-3.237727E-1,-6.252357E-2,7.340908E-2,-1.9238946E-1,-7.371695E-2,1.402926E-1,2.4611166E-1,4.737716E-2,1.6074342E-1,3.850306E-1,2.7361935E-2,2.6066142E-1,3.7310624E-1,-1.7742386E-2,-2.4480951E-1,-4.600734E-1,-1.7294489E-2,-1.6989486E-1,-2.661761E-1,-2.7004945E-1,-1.8201018E-2,-1.3949259E-2,-9.6537806E-2,1.629181E-1,4.0178612E-2,-1.4664046E-1,-2.3713586E-1,-1.8635565E-2,-1.0872057E-1,8.4652305E-2,1.5480787E-1,2.8606552E-1,1.9101539E-1,9.143946E-2,1.7152091E-2,2.3540634E-1,1.255519E-1,3.056696E-1,2.0961467E-2,2.1874896E-1,3.134718E-1,1.26132015E-2,4.0309638E-1,-1.24079585E-2,-2.0168961E-3,-2.0498883E-2,-2.6025822E-2,-9.864933E-3,-5.2658794E-3,-1.4371936E-2,-8.640655E-3,-2.7875125E-3,-1.3775833E-2,-2.077621E-3,2.351001E-3,-5.340987E-3,-8.3243166E-4,1.604267E-3,8.911173E-3,3.6612153E-4,4.103679E-3,-5.7809222E-3,-9.607419E-3,-1.0088219E-2,-1.521665E-2,-2.126416E-3,2.54002E-3,-2.9192006E-3,-7.0490427E-3,5.1216497E-3,7.296175E-4,8.676537E-3,5.35208E-3,8.583143E-3,1.5052271E-2,9.663819E-3,2.5709332E-3,2.1439767E-3,6.0382388E-3,-1.5595658E-3,2.3962788E-3,4.732923E-3,1.228931E-2,4.145928E-3,7.987624E-3,9.1852965E-3,1.6072577E-2,1.2292887E-2,7.4563674E-3,3.6851466E-3,1.5833268E-2,2.0437047E-2,3.445065E-3],"categories":[],"categories_nodes":[],"categories_segments":[],"categories_sizes":[],"default_left":[0,0,0,0,0,0,0,0,0,0,0,0,0,0,0,0,0,0,0,0,0,0,0,0,0,0,0,0,0,0,0,0,0,0,0,0,0,0,0,0,0,0,0,0,0,0,0,0,0,0,0,0,0,0,0,0,0,0,0,0,0,0,0,0,0,0,0,0,0,0,0,0,0,0,0,0,0,0,0,0,0,0,0,0,0,0,0,0,0,0,0,0,0,0,0,0,0,0,0,0,0,0,0,0,0,0,0,0,0,0,0],"id":16,"left_children":[1,3,5,7,9,11,13,15,17,19,21,23,25,27,29,31,33,35,37,39,41,43,45,47,49,51,53,55,-1,57,59,-1,61,63,-1,65,67,69,-1,71,73,75,77,79,81,83,85,87,89,91,93,95,97,99,101,103,-1,105,107,-1,109,-1,-1,-1,-1,-1,-1,-1,-1,-1,-1,-1,-1,-1,-1,-1,-1,-1,-1,-1,-1,-1,-1,-1,-1,-1,-1,-1,-1,-1,-1,-1,-1,-1,-1,-1,-1,-1,-1,-1,-1,-1,-1,-1,-1,-1,-1,-1,-1,-1,-1],"loss_changes":[6.8454315E1,1.0843353E1,7.0839844E0,1.2878036E0,1.4419487E0,1.112081E0,1.0931625E0,6.517315E-1,4.902029E-1,6.8132514E-1,8.085284E-1,3.4524584E-1,5.411743E-1,4.1689873E-1,4.3476105E-1,1.8838024E-1,2.2828102E-1,1.7510986E-1,3.3593178E-2,1.4239636E-1,1.838175E-1,1.945014E-1,2.3512381E-1,3.2930255E-2,1.3907194E-1,1.5957776E-1,1.438595E-1,1.2697506E-1,0E0,2.0810604E-1,1.2300587E-1,0E0,2.4235249E-2,3.186035E-2,0E0,1.0309744E-1,1.9806623E-2,1.9788504E-2,0E0,6.422274E-2,4.0113717E-2,2.8323114E-2,6.547145E-2,5.966544E-2,6.932402E-2,8.3452255E-2,1.13559365E-1,1.5945263E-2,2.077508E-2,3.229475E-2,2.6870966E-3,6.4599365E-2,1.1009659E-1,5.9530735E-3,5.5283427E-2,2.5417805E-3,0E0,1.0111284E-1,1.7243862E-2,0E0,6.2383175E-2,0E0,0E0,0E0,0E0,0E0,0E0,0E0,0E0,0E0,0E0,0E0,0E0,0E0,0E0,0E0,0E0,0E0,0E0,0E0,0E0,0E0,0E0,0E0,0E0,0E0,0E0,0E0,0E0,0E0,0E0,0E0,0E0,0E0,0E0,0E0,0E0,0E0,0E0,0E0,0E0,0E0,0E0,0E0,0E0,0E0,0E0,0E0,0E0,0E0,0E0],"parents":[2147483647,0,0,1,1,2,2,3,3,4,4,5,5,6,6,7,7,8,8,9,9,10,10,11,11,12,12,13,13,14,14,15,15,16,16,17,17,18,18,19,19,20,20,21,21,22,22,23,23,24,24,25,25,26,26,27,27,29,29,30,30,32,32,33,33,35,35,36,36,